{"learner":{"attributes":{"scikit_learn":"{\"_estimator_type\": \"regressor\"}"},"feature_names":["area","latitude","longitude","Bedrooms","Bathrooms","Balcony","parking","Lift","Status_Ready to Move","Status_Under Construction","Status_unknown","neworold_New Property","neworold_Resale","Furnished_status_Furnished","Furnished_status_Semi-Furnished","Furnished_status_Unfurnished","Furnished_status_unknown","type_of_building_Flat","type_of_building_Individual House"],"feature_types":["int","float","float","int","int","int","int","int","i","i","i","i","i","i","i","i","i","i","i"],"gradient_booster":{"model":{"gbtree_model_param":{"num_parallel_tree":"1","num_trees":"100"},"iteration_indptr":[0,1,2,3,4,5,6,7,8,9,10,11,12,13,14,15,16,17,18,19,20,21,22,23,24,25,26,27,28,29,30,31,32,33,34,35,36,37,38,39,40,41,42,43,44,45,46,47,48,49,50,51,52,53,54,55,56,57,58,59,60,61,62,63,64,65,66,67,68,69,70,71,72,73,74,75,76,77,78,79,80,81,82,83,84,85,86,87,88,89,90,91,92,93,94,95,96,97,98,99,100],"tree_info":[0,0,0,0,0,0,0,0,0,0,0,0,0,0,0,0,0,0,0,0,0,0,0,0,0,0,0,0,0,0,0,0,0,0,0,0,0,0,0,0,0,0,0,0,0,0,0,0,0,0,0,0,0,0,0,0,0,0,0,0,0,0,0,0,0,0,0,0,0,0,0,0,0,0,0,0,0,0,0,0,0,0,0,0,0,0,0,0,0,0,0,0,0,0,0,0,0,0,0,0],"trees":[{"base_weights":[-2.292715E-1,-3.6650275E6,1.5933224E7,2.461282E6,-8.818537E6,3.0646706E7,7.2936055E6,7.884271E6,-2.128262E6,-5.529452E6,-1.3761626E7,4.639613E7,1.71914E7,1.0726879E7,-2.9841092E6,1.1635432E7,6.0614606E5,-4.8500265E6,5.3966275E5,-6.621163E6,1.7454362E5,-1.2064723E7,-1.6553594E7,2.6744654E7,5.677358E7,1.2949432E7,2.9616152E7,1.4387363E7,6.4673445E6,2.1876662E6,-8.502472E6,3.380924E7,1.0239866E7,-3.5946422E6,3.1993232E6,-6.8121055E6,-3.2487848E6,-6.934648E5,3.9463005E6,-6.1378275E6,-4.6473925E6,-3.2694438E6,1.4409102E6,-9.697994E6,-1.3461486E7,-4.989481E6,-3.2350068E6,1.1361134E7,2.3193978E7,7.277017E7,4.3025836E7,1.7948298E7,7.8301035E6,3.6525588E7,1.8966042E7,1.1398082E7,2.5559768E7,3.9358992E6,9.150265E6,4.55874E6,-7.7916165E6,-6.308856E6,-1.1254206E7,1.4471235E6,1.0392722E7,1.5927649E6,4.490809E6,-2.3814135E6,-8.613063E5,4.1589306E5,2.5946315E6,-1.9675069E6,-3.9049312E6,-1.1797755E6,1.3478542E6,6.4585156E5,-6.7635775E5,1.5586604E6,-4.4259666E5,-2.0976365E6,-9.447127E5,-1.171656E6,1.0853976E6,-1.6899259E6,6.3800275E5,-1.9624446E6,-3.7164222E6,-3.8439595E6,-4.833947E6,-2.3028765E6,8.4712356E5,2.0581854E6,7.2823435E6,1.0969966E7,2.368984E7,1.0348828E7,1.6612534E7,3.3108722E6,6.2989235E6,9.8859944E5,2.9619305E6,3.7456855E6,1.1770872E7,6.265762E6,5.2949806E5,4.0958008E6,1.5727002E6,1.0388115E7,5.8089285E6,1.351563E6,-6.7733606E5,2.828422E6,-2.3778765E6,3.503643E5,2.5226082E6,-2.566849E6,3.221235E5,-2.2075485E6,-1.377883E5,-3.458503E6,-5.778765E5],"categories":[],"categories_nodes":[],"categories_segments":[],"categories_sizes":[],"default_left":[0,0,0,0,0,0,0,0,0,0,0,0,0,0,0,0,0,0,0,0,0,0,0,0,0,0,0,0,0,0,0,0,0,0,0,0,0,0,0,0,0,0,0,0,0,0,0,0,0,0,0,0,0,0,0,0,0,0,0,0,0,0,0,0,0,0,0,0,0,0,0,0,0,0,0,0,0,0,0,0,0,0,0,0,0,0,0,0,0,0,0,0,0,0,0,0,0,0,0,0,0,0,0,0,0,0,0,0,0,0,0,0,0,0,0,0,0,0,0,0,0],"id":0,"left_children":[1,3,5,7,9,11,13,15,17,19,21,23,25,27,29,31,33,35,37,39,41,43,45,47,49,51,53,55,57,59,61,63,65,67,69,71,73,75,77,79,-1,81,83,85,87,-1,89,-1,91,93,95,97,99,101,103,105,107,109,111,113,115,117,119,-1,-1,-1,-1,-1,-1,-1,-1,-1,-1,-1,-1,-1,-1,-1,-1,-1,-1,-1,-1,-1,-1,-1,-1,-1,-1,-1,-1,-1,-1,-1,-1,-1,-1,-1,-1,-1,-1,-1,-1,-1,-1,-1,-1,-1,-1,-1,-1,-1,-1,-1,-1,-1,-1,-1,-1,-1,-1],"loss_changes":[2.6698513E17,1.1737481E17,1.0846313E17,4.2303267E16,3.2749297E16,6.6166995E16,1.908656E16,2.1260754E16,6.690424E15,7.5608733E15,3.6188707E15,2.8051771E16,8.681817E15,6.221698E15,3.9000043E15,1.5559541E16,2.909142E15,1.4105124E15,1.9603181E15,4.27363E15,8.595357E14,1.538861E15,2.5996578E14,1.1758461E15,1.7541231E16,3.186271E15,2.471466E15,6.95591E15,1.2476102E15,1.7154948E15,3.273914E14,5.5738368E14,1.123048E16,2.9779357E14,1.6181968E15,2.3580122E14,1.3569826E15,1.5288893E15,8.4750174E14,2.4495788E15,0E0,2.4631973E14,7.1053845E14,1.5407959E15,3.350375E14,0E0,1.0240105E14,0E0,5.7468595E14,6.533762E15,3.6725836E15,1.1377476E15,5.7892374E14,1.13921E15,5.905752E14,2.3294378E15,1.8579298E15,3.5925885E14,5.0643355E14,7.4734954E14,1.0407894E14,2.3607744E14,4.9393466E13,0E0,0E0,0E0,0E0,0E0,0E0,0E0,0E0,0E0,0E0,0E0,0E0,0E0,0E0,0E0,0E0,0E0,0E0,0E0,0E0,0E0,0E0,0E0,0E0,0E0,0E0,0E0,0E0,0E0,0E0,0E0,0E0,0E0,0E0,0E0,0E0,0E0,0E0,0E0,0E0,0E0,0E0,0E0,0E0,0E0,0E0,0E0,0E0,0E0,0E0,0E0,0E0,0E0,0E0,0E0,0E0,0E0,0E0],"parents":[2147483647,0,0,1,1,2,2,3,3,4,4,5,5,6,6,7,7,8,8,9,9,10,10,11,11,12,12,13,13,14,14,15,15,16,16,17,17,18,18,19,19,20,20,21,21,22,22,23,23,24,24,25,25,26,26,27,27,28,28,29,29,30,30,31,31,32,32,33,33,34,34,35,35,36,36,37,37,38,38,39,39,41,41,42,42,43,43,44,44,46,46,48,48,49,49,50,50,51,51,52,52,53,53,54,54,55,55,56,56,57,57,58,58,59,59,60,60,61,61,62,62],"right_children":[2,4,6,8,10,12,14,16,18,20,22,24,26,28,30,32,34,36,38,40,42,44,46,48,50,52,54,56,58,60,62,64,66,68,70,72,74,76,78,80,-1,82,84,86,88,-1,90,-1,92,94,96,98,100,102,104,106,108,110,112,114,116,118,120,-1,-1,-1,-1,-1,-1,-1,-1,-1,-1,-1,-1,-1,-1,-1,-1,-1,-1,-1,-1,-1,-1,-1,-1,-1,-1,-1,-1,-1,-1,-1,-1,-1,-1,-1,-1,-1,-1,-1,-1,-1,-1,-1,-1,-1,-1,-1,-1,-1,-1,-1,-1,-1,-1,-1,-1,-1,-1],"split_conditions":[1.3E3,1.9148062E1,1.9109192E1,7.285381E1,1.9234638E1,7.284167E1,1.9213053E1,1.9114626E1,9.45E2,3E0,1.9344875E1,1.48E3,1.7E3,1.916009E1,1.9259706E1,7.281191E1,8.58E2,7.8E2,3E0,7.296808E1,3E0,7.287057E1,4E0,7.282183E1,7.282735E1,7.287917E1,7.2891304E1,1.688E3,1.566E3,7.2872696E1,1.9344875E1,5.6E2,9.25E2,6.25E2,3E0,7.294255E1,3E0,7.287959E1,1.9119328E1,1.03E3,-4.6473925E6,1E0,7.86E2,1.9262312E1,7.2889946E1,-4.989481E6,9.06E2,1.1361134E7,7.282391E1,3E0,4E0,3E0,3E0,3E0,1E0,7.288406E1,1.9121311E1,4E0,7.296808E1,1.6E3,4E0,1.61E3,5E0,1.4471235E6,1.0392722E7,1.5927649E6,4.490809E6,-2.3814135E6,-8.613063E5,4.1589306E5,2.5946315E6,-1.9675069E6,-3.9049312E6,-1.1797755E6,1.3478542E6,6.4585156E5,-6.7635775E5,1.5586604E6,-4.4259666E5,-2.0976365E6,-9.447127E5,-1.171656E6,1.0853976E6,-1.6899259E6,6.3800275E5,-1.9624446E6,-3.7164222E6,-3.8439595E6,-4.833947E6,-2.3028765E6,8.4712356E5,2.0581854E6,7.2823435E6,1.0969966E7,2.368984E7,1.0348828E7,1.6612534E7,3.3108722E6,6.2989235E6,9.8859944E5,2.9619305E6,3.7456855E6,1.1770872E7,6.265762E6,5.2949806E5,4.0958008E6,1.5727002E6,1.0388115E7,5.8089285E6,1.351563E6,-6.7733606E5,2.828422E6,-2.3778765E6,3.503643E5,2.5226082E6,-2.566849E6,3.221235E5,-2.2075485E6,-1.377883E5,-3.458503E6,-5.778765E5],"split_indices":[0,1,1,2,1,2,1,1,0,3,1,0,0,1,1,2,0,0,3,2,4,2,4,2,2,2,2,0,0,2,1,0,0,0,3,2,3,2,1,0,0,11,0,1,2,0,0,0,2,4,4,4,4,4,13,2,1,5,2,0,3,0,3,0,0,0,0,0,0,0,0,0,0,0,0,0,0,0,0,0,0,0,0,0,0,0,0,0,0,0,0,0,0,0,0,0,0,0,0,0,0,0,0,0,0,0,0,0,0,0,0,0,0,0,0,0,0,0,0,0,0],"split_type":[0,0,0,0,0,0,0,0,0,0,0,0,0,0,0,0,0,0,0,0,0,0,0,0,0,0,0,0,0,0,0,0,0,0,0,0,0,0,0,0,0,0,0,0,0,0,0,0,0,0,0,0,0,0,0,0,0,0,0,0,0,0,0,0,0,0,0,0,0,0,0,0,0,0,0,0,0,0,0,0,0,0,0,0,0,0,0,0,0,0,0,0,0,0,0,0,0,0,0,0,0,0,0,0,0,0,0,0,0,0,0,0,0,0,0,0,0,0,0,0,0],"sum_hessian":[4.57E3,3.716E3,8.54E2,1.698E3,2.018E3,3.15E2,5.39E2,7.78E2,9.2E2,1.213E3,8.05E2,1.44E2,1.71E2,4.04E2,1.35E2,5.13E2,2.65E2,4.55E2,4.65E2,1.018E3,1.95E2,5.04E2,3.01E2,5.1E1,9.3E1,1.29E2,4.2E1,2.16E2,1.88E2,7E1,6.5E1,2.9E1,4.84E2,1.01E2,1.64E2,2.03E2,2.52E2,3.42E2,1.23E2,9.67E2,5.1E1,5.2E1,1.43E2,1.9E2,3.14E2,2.99E2,2E0,1E1,4.1E1,4.1E1,5.2E1,6.4E1,6.5E1,2.4E1,1.8E1,1.72E2,4.4E1,9.8E1,9E1,5.7E1,1.3E1,3.8E1,2.7E1,1E0,2.8E1,2.38E2,2.46E2,1.3E1,8.8E1,1.24E2,4E1,1.97E2,6E0,2.32E2,2E1,1.21E2,2.21E2,1E2,2.3E1,7.51E2,2.16E2,4.8E1,4E0,1.2E1,1.31E2,8.9E1,1.01E2,2.57E2,5.7E1,1E0,1E0,3E0,3.8E1,7E0,3.4E1,3.3E1,1.9E1,2.1E1,4.3E1,2.1E1,4.4E1,3E0,2.1E1,1.6E1,2E0,1.25E2,4.7E1,1.6E1,2.8E1,9E1,8E0,8.9E1,1E0,3.1E1,2.6E1,1.2E1,1E0,3.2E1,6E0,2.6E1,1E0],"tree_param":{"num_deleted":"0","num_feature":"19","num_nodes":"121","size_leaf_vector":"1"}},{"base_weights":[2.600606E4,-2.5699738E6,1.1311657E7,1.8246824E6,-6.1173505E6,2.0060386E7,3.7555512E6,6.3035565E6,-1.097749E6,-3.8324915E6,-9.658947E6,3.389956E7,1.2275198E7,5.4643805E6,-5.6838705E6,9.35068E6,3.85216E5,-1.9531386E6,3.1502642E6,-4.606805E6,1.4464703E5,-8.473735E6,-1.1608856E7,6.682707E7,2.9484284E7,9.509861E6,2.4968774E7,3.2246225E6,7.805049E6,-4.0667268E6,-8.0221015E6,2.8021538E6,1.237212E7,-8.4396675E5,7.5251515E6,-3.1752868E6,-4.0618875E5,6.85199E6,1.5816262E6,-4.2722175E6,-3.2799868E6,5.52497E5,-8.798807E6,-5.0729575E6,-8.982363E6,-1.1846932E7,-8.040309E6,2.2572472E7,6.8319615E6,1.868223E7,3.625598E7,1.6477344E7,7.243702E6,3.0370812E7,1.5178449E7,3.6730902E6,-2.9187205E6,1.7089522E7,6.550236E6,-5.236496E6,-1.9008288E6,-8.620355E6,-4.3917775E6,-7.780486E5,1.1543474E6,6.0746085E6,2.793146E6,-8.840538E5,1.4123945E5,2.9663062E6,3.7927203E4,-1.9563861E4,-1.1596026E6,-1.6235062E4,-1.9747034E6,-1.9423969E6,2.4454748E6,-1.7985989E6,6.529102E5,-1.4458175E6,-4.859017E5,-1.2476378E6,4.3721075E5,-2.8762032E6,-3.735768E5,-7.179112E5,-2.4039258E6,-2.826674E6,-2.0494014E6,-3.6649525E6,-3.007967E6,-2.9416348E6,-2.3323082E4,5.776919E6,9.2302925E5,8.112077E6,1.3362619E7,2.2456935E6,5.715624E6,1.7390524E6,4.172779E6,6.6156065E6,1.1481934E7,4.9646535E6,-1.2177409E6,1.8976842E6,6.411216E5,6.042825E6,-5.0570972E5,2.7372295E6,1.4803234E6,-1.6886326E6,8.0325575E5,-7.4591844E5,1.8715786E5,-2.6505568E6,-5.8410125E5,-3.5910122E5,-1.4373995E6],"categories":[],"categories_nodes":[],"categories_segments":[],"categories_sizes":[],"default_left":[0,0,0,0,0,0,0,0,0,0,0,0,0,0,0,0,0,0,0,0,0,0,0,0,0,0,0,0,0,0,0,0,0,0,0,0,0,0,0,0,0,0,0,0,0,0,0,0,0,0,0,0,0,0,0,0,0,0,0,0,0,0,0,0,0,0,0,0,0,0,0,0,0,0,0,0,0,0,0,0,0,0,0,0,0,0,0,0,0,0,0,0,0,0,0,0,0,0,0,0,0,0,0,0,0,0,0,0,0,0,0,0,0,0,0,0,0,0,0],"id":1,"left_children":[1,3,5,7,9,11,13,15,17,19,21,23,25,27,29,31,33,35,37,39,41,43,45,47,49,51,53,55,57,59,61,63,65,67,69,71,73,75,77,79,-1,81,83,85,87,89,91,-1,-1,93,95,97,99,101,103,105,-1,107,109,111,113,115,117,-1,-1,-1,-1,-1,-1,-1,-1,-1,-1,-1,-1,-1,-1,-1,-1,-1,-1,-1,-1,-1,-1,-1,-1,-1,-1,-1,-1,-1,-1,-1,-1,-1,-1,-1,-1,-1,-1,-1,-1,-1,-1,-1,-1,-1,-1,-1,-1,-1,-1,-1,-1,-1,-1,-1,-1],"loss_changes":[1.3394712E17,5.7957337E16,5.644557E16,2.1748084E16,1.6608329E16,4.224913E16,7.451024E15,1.1826648E16,3.6616618E15,3.8562643E15,1.7643468E15,1.8674174E16,8.713565E15,2.0194195E15,2.3584551E14,8.532657E15,1.9722389E15,1.583034E15,9.704896E14,2.1716622E15,7.526168E14,8.2794514E14,1.6131897E14,4.2175634E15,8.612483E15,3.2122103E15,1.9189656E15,1.2034073E15,2.1016123E15,1.0152477E14,2.2953245E13,7.8858505E14,6.9495706E15,5.3222738E14,5.75582E14,1.0041333E15,8.06365E14,9.187389E14,5.5380708E14,1.4392435E15,0E0,8.458944E14,4.166756E13,5.1661732E14,3.5006775E14,6.655911E13,3.0844858E14,0E0,0E0,3.9772256E14,4.675467E15,1.0380968E15,1.472078E15,9.9665146E14,5.4170973E14,7.809754E14,0E0,1.2951055E15,6.578333E14,1.0199722E14,2.6683478E13,1.5772059E13,1.9236588E12,0E0,0E0,0E0,0E0,0E0,0E0,0E0,0E0,0E0,0E0,0E0,0E0,0E0,0E0,0E0,0E0,0E0,0E0,0E0,0E0,0E0,0E0,0E0,0E0,0E0,0E0,0E0,0E0,0E0,0E0,0E0,0E0,0E0,0E0,0E0,0E0,0E0,0E0,0E0,0E0,0E0,0E0,0E0,0E0,0E0,0E0,0E0,0E0,0E0,0E0,0E0,0E0,0E0,0E0,0E0,0E0],"parents":[2147483647,0,0,1,1,2,2,3,3,4,4,5,5,6,6,7,7,8,8,9,9,10,10,11,11,12,12,13,13,14,14,15,15,16,16,17,17,18,18,19,19,20,20,21,21,22,22,23,23,24,24,25,25,26,26,27,27,28,28,29,29,30,30,31,31,32,32,33,33,34,34,35,35,36,36,37,37,38,38,39,39,41,41,42,42,43,43,44,44,45,45,46,46,49,49,50,50,51,51,52,52,53,53,54,54,55,55,57,57,58,58,59,59,60,60,61,61,62,62],"right_children":[2,4,6,8,10,12,14,16,18,20,22,24,26,28,30,32,34,36,38,40,42,44,46,48,50,52,54,56,58,60,62,64,66,68,70,72,74,76,78,80,-1,82,84,86,88,90,92,-1,-1,94,96,98,100,102,104,106,-1,108,110,112,114,116,118,-1,-1,-1,-1,-1,-1,-1,-1,-1,-1,-1,-1,-1,-1,-1,-1,-1,-1,-1,-1,-1,-1,-1,-1,-1,-1,-1,-1,-1,-1,-1,-1,-1,-1,-1,-1,-1,-1,-1,-1,-1,-1,-1,-1,-1,-1,-1,-1,-1,-1,-1,-1,-1,-1,-1,-1],"split_conditions":[1.3E3,1.914459E1,1.9121311E1,7.2848595E1,1.9234638E1,7.2839195E1,1.9252338E1,1.91181E1,3E0,3E0,1.9344875E1,7.2809746E1,1.773E3,1.55E3,1.9344875E1,8.5E2,1.155E3,9.45E2,7.286478E1,7.296808E1,7.296673E1,7.285802E1,3E0,1E0,1.48E3,7.285109E1,7.287917E1,7.296808E1,7.2829155E1,1.53E3,1.65E3,6.46E2,7.282735E1,8.15E2,1.234E3,7.286041E1,7.293114E1,1.9013693E1,7.86E2,1.065E3,-3.2799868E6,7.2831E1,4E0,1.9259706E1,1.1E3,9.85E2,7.282335E1,2.2572472E7,6.8319615E6,7.2838455E1,1.9021908E1,3E0,1E0,4E0,7.292655E1,1.916009E1,-2.9187205E6,1.915146E1,7.285445E1,4E0,1.715E3,4E0,1.67E3,-7.780486E5,1.1543474E6,6.0746085E6,2.793146E6,-8.840538E5,1.4123945E5,2.9663062E6,3.7927203E4,-1.9563861E4,-1.1596026E6,-1.6235062E4,-1.9747034E6,-1.9423969E6,2.4454748E6,-1.7985989E6,6.529102E5,-1.4458175E6,-4.859017E5,-1.2476378E6,4.3721075E5,-2.8762032E6,-3.735768E5,-7.179112E5,-2.4039258E6,-2.826674E6,-2.0494014E6,-3.6649525E6,-3.007967E6,-2.9416348E6,-2.3323082E4,5.776919E6,9.2302925E5,8.112077E6,1.3362619E7,2.2456935E6,5.715624E6,1.7390524E6,4.172779E6,6.6156065E6,1.1481934E7,4.9646535E6,-1.2177409E6,1.8976842E6,6.411216E5,6.042825E6,-5.0570972E5,2.7372295E6,1.4803234E6,-1.6886326E6,8.0325575E5,-7.4591844E5,1.8715786E5,-2.6505568E6,-5.8410125E5,-3.5910122E5,-1.4373995E6],"split_indices":[0,1,1,2,1,2,1,1,3,3,1,2,0,0,1,0,0,0,2,2,2,2,4,14,0,2,2,2,2,0,0,0,2,0,0,2,2,1,0,0,0,2,4,1,0,0,2,0,0,2,1,4,13,4,2,1,0,1,2,4,0,4,0,0,0,0,0,0,0,0,0,0,0,0,0,0,0,0,0,0,0,0,0,0,0,0,0,0,0,0,0,0,0,0,0,0,0,0,0,0,0,0,0,0,0,0,0,0,0,0,0,0,0,0,0,0,0,0,0],"split_type":[0,0,0,0,0,0,0,0,0,0,0,0,0,0,0,0,0,0,0,0,0,0,0,0,0,0,0,0,0,0,0,0,0,0,0,0,0,0,0,0,0,0,0,0,0,0,0,0,0,0,0,0,0,0,0,0,0,0,0,0,0,0,0,0,0,0,0,0,0,0,0,0,0,0,0,0,0,0,0,0,0,0,0,0,0,0,0,0,0,0,0,0,0,0,0,0,0,0,0,0,0,0,0,0,0,0,0,0,0,0,0,0,0,0,0,0,0,0,0],"sum_hessian":[4.57E3,3.716E3,8.54E2,1.66E3,2.056E3,3.95E2,4.59E2,6.55E2,1.005E3,1.251E3,8.05E2,1.41E2,2.54E2,3.89E2,7E1,4.32E2,2.23E2,8.37E2,1.68E2,1.047E3,2.04E2,5.04E2,3.01E2,1.5E1,1.26E2,2.1E2,4.4E1,2E2,1.89E2,4.3E1,2.7E1,1.37E2,2.95E2,1.91E2,3.2E1,4.67E2,3.7E2,4.9E1,1.19E2,9.96E2,5.1E1,1.96E2,8E0,6.7E1,4.37E2,2.8E2,2.1E1,1.2E1,3E0,5E1,7.6E1,5E1,1.6E2,2.7E1,1.7E1,1.94E2,6E0,2.1E1,1.68E2,2.7E1,1.6E1,2.2E1,5E0,2.2E1,1.15E2,8.1E1,2.14E2,7.3E1,1.18E2,2.4E1,8E0,8.5E1,3.82E2,3.51E2,1.9E1,4E0,4.5E1,8E0,1.11E2,8.25E2,1.71E2,3.1E1,1.65E2,7E0,1E0,3.6E1,3.1E1,3.6E2,7.7E1,2.28E2,5.2E1,1.7E1,4E0,4.8E1,2E0,3.8E1,3.8E1,1.2E1,3.8E1,1.33E2,2.7E1,1.5E1,1.2E1,1.6E1,1E0,7E1,1.24E2,1.8E1,3E0,6.3E1,1.05E2,2.6E1,1E0,1.3E1,3E0,2.1E1,1E0,1E0,4E0],"tree_param":{"num_deleted":"0","num_feature":"19","num_nodes":"119","size_leaf_vector":"1"}},{"base_weights":[3.504559E4,-2.224287E6,6.8687005E6,-8.00381E4,-5.4149835E6,1.3199034E7,1.8355352E6,1.9878406E6,-2.2111195E6,-3.9902318E6,-7.399245E6,2.5248774E7,9.147537E6,3.1068135E6,-4.825513E6,1.5574046E7,1.6665314E6,-2.7007382E6,2.2861082E6,-3.3143258E6,-7.6460535E6,-8.1381605E6,-6.0222895E6,1.7070908E7,3.368304E7,7.2505005E6,2.116872E7,1.622748E6,6.1856625E6,-4.0732378E6,-2.2599548E6,1.9486592E7,-3.1909468E6,8.588829E5,5.5930795E6,-2.4888278E6,-9.081843E6,1.5735748E6,1.1527829E7,-4.8897555E6,-2.419886E6,-2.9615385E6,-7.898851E6,-7.3586205E6,-2.5844265E6,-5.2672815E6,-2.1552208E6,6.8710435E6,2.075271E7,4.528615E7,2.099338E7,1.0304405E7,4.7440475E6,-4.7287275E5,2.4622448E7,1.9108542E6,-2.6042605E6,1.4339105E7,5.0866075E6,-4.3276145E6,4.067896E6,7.169255E6,2.364284E6,-1.6155965E6,8.379828E5,7.804414E5,-2.0863419E5,3.1996595E6,1.1847599E6,-1.1395885E6,-5.807332E5,-1.1113108E6,-2.802893E6,3.5570175E5,3.883415E6,3.957736E6,2.3101261E5,-2.2676335E6,-1.2763822E6,-1.3213311E6,-5.8679194E5,-4.4290606E5,-1.4834188E6,-1.5731256E6,-2.4703818E6,-2.4627075E6,-2.0437422E6,3.4151758E6,-1.6464092E6,4.32205E6,2.4227184E4,3.417656E6,6.968302E6,1.4970495E7,5.321393E6,8.696726E6,3.1596078E6,1.4110978E6,3.7953868E6,1.2747178E6,5.566664E6,-1.9311809E6,7.764414E5,7.9534865E6,2.4717268E6,-6.425716E5,7.0952306E5,4.6405425E6,8.349556E5,5.397465E6,1.4133206E6,-2.12163E6,-1.0250288E6,2.7240445E6,-8.9349125E5],"categories":[],"categories_nodes":[],"categories_segments":[],"categories_sizes":[],"default_left":[0,0,0,0,0,0,0,0,0,0,0,0,0,0,0,0,0,0,0,0,0,0,0,0,0,0,0,0,0,0,0,0,0,0,0,0,0,0,0,0,0,0,0,0,0,0,0,0,0,0,0,0,0,0,0,0,0,0,0,0,0,0,0,0,0,0,0,0,0,0,0,0,0,0,0,0,0,0,0,0,0,0,0,0,0,0,0,0,0,0,0,0,0,0,0,0,0,0,0,0,0,0,0,0,0,0,0,0,0,0,0,0,0,0,0],"id":2,"left_children":[1,3,5,7,9,11,13,15,17,19,21,23,25,27,29,31,33,35,37,39,41,43,45,47,49,51,53,55,57,59,-1,61,63,65,67,69,71,73,75,77,79,81,83,85,-1,87,-1,89,91,93,95,97,99,101,103,105,-1,107,109,111,113,-1,-1,-1,-1,-1,-1,-1,-1,-1,-1,-1,-1,-1,-1,-1,-1,-1,-1,-1,-1,-1,-1,-1,-1,-1,-1,-1,-1,-1,-1,-1,-1,-1,-1,-1,-1,-1,-1,-1,-1,-1,-1,-1,-1,-1,-1,-1,-1,-1,-1,-1,-1,-1,-1],"loss_changes":[7.0589235E16,2.3507466E16,3.617057E16,9.064813E15,3.8746747E15,2.4325226E16,5.383734E15,4.531496E15,2.2367272E15,1.9662779E15,5.3704056E14,8.11577E15,8.4666604E15,2.4253535E15,1.7708043E14,1.8242347E15,3.2330635E15,1.2133293E15,6.4036365E14,9.491915E14,1.2463673E14,7.481618E13,1.4197498E14,2.335964E15,8.030906E15,2.4617818E15,3.8235968E15,1.0882297E15,1.4773297E15,1.8741962E14,0E0,8.354973E14,8.0700825E13,2.2986665E15,1.4087788E15,6.344526E14,6.112812E12,3.9927553E14,1.1519498E14,3.8486665E14,3.9371294E14,1.626307E13,6.201181E13,1.2814572E13,0E0,5.3296947E14,0E0,9.710697E14,8.473992E14,3.056449E15,2.287708E15,1.8727056E15,1.1654064E15,1.6271718E14,1.1434105E15,6.530464E14,0E0,2.1796637E14,6.615718E14,1.75822E14,1.3299542E14,0E0,0E0,0E0,0E0,0E0,0E0,0E0,0E0,0E0,0E0,0E0,0E0,0E0,0E0,0E0,0E0,0E0,0E0,0E0,0E0,0E0,0E0,0E0,0E0,0E0,0E0,0E0,0E0,0E0,0E0,0E0,0E0,0E0,0E0,0E0,0E0,0E0,0E0,0E0,0E0,0E0,0E0,0E0,0E0,0E0,0E0,0E0,0E0,0E0,0E0,0E0,0E0,0E0,0E0],"parents":[2147483647,0,0,1,1,2,2,3,3,4,4,5,5,6,6,7,7,8,8,9,9,10,10,11,11,12,12,13,13,14,14,15,15,16,16,17,17,18,18,19,19,20,20,21,21,22,22,23,23,24,24,25,25,26,26,27,27,28,28,29,29,31,31,32,32,33,33,34,34,35,35,36,36,37,37,38,38,39,39,40,40,41,41,42,42,43,43,45,45,47,47,48,48,49,49,50,50,51,51,52,52,53,53,54,54,55,55,57,57,58,58,59,59,60,60],"right_children":[2,4,6,8,10,12,14,16,18,20,22,24,26,28,30,32,34,36,38,40,42,44,46,48,50,52,54,56,58,60,-1,62,64,66,68,70,72,74,76,78,80,82,84,86,-1,88,-1,90,92,94,96,98,100,102,104,106,-1,108,110,112,114,-1,-1,-1,-1,-1,-1,-1,-1,-1,-1,-1,-1,-1,-1,-1,-1,-1,-1,-1,-1,-1,-1,-1,-1,-1,-1,-1,-1,-1,-1,-1,-1,-1,-1,-1,-1,-1,-1,-1,-1,-1,-1,-1,-1,-1,-1,-1,-1,-1,-1,-1,-1,-1,-1],"split_conditions":[3E0,1.9185238E1,1.9119478E1,7.286478E1,1.9276463E1,7.283293E1,1.9253933E1,7.2809746E1,1.242E3,7.287871E1,9.6E2,1.48E3,4E0,1.55E3,1.9405329E1,1.8976913E1,1.19E3,7.296808E1,1E0,8.15E2,1.9188972E1,1.9309393E1,1.9344875E1,3E0,7.282679E1,7.2855095E1,1.11E3,7.296808E1,7.2829155E1,1.9380144E1,-2.2599548E6,1E0,1.065E3,1.910824E1,7.282914E1,7.9E2,1E0,1.715E3,1E0,6.04E2,7.282679E1,1E0,7.2883575E1,7.86E2,-2.5844265E6,7.284416E1,-2.1552208E6,7.281462E1,1.06E3,1E0,1E0,1.13E3,1.89E3,6.3E2,1E0,8.84E2,-2.6042605E6,1.915146E1,1.9121311E1,3E0,8.55E2,7.169255E6,2.364284E6,-1.6155965E6,8.379828E5,7.804414E5,-2.0863419E5,3.1996595E6,1.1847599E6,-1.1395885E6,-5.807332E5,-1.1113108E6,-2.802893E6,3.5570175E5,3.883415E6,3.957736E6,2.3101261E5,-2.2676335E6,-1.2763822E6,-1.3213311E6,-5.8679194E5,-4.4290606E5,-1.4834188E6,-1.5731256E6,-2.4703818E6,-2.4627075E6,-2.0437422E6,3.4151758E6,-1.6464092E6,4.32205E6,2.4227184E4,3.417656E6,6.968302E6,1.4970495E7,5.321393E6,8.696726E6,3.1596078E6,1.4110978E6,3.7953868E6,1.2747178E6,5.566664E6,-1.9311809E6,7.764414E5,7.9534865E6,2.4717268E6,-6.425716E5,7.0952306E5,4.6405425E6,8.349556E5,5.397465E6,1.4133206E6,-2.12163E6,-1.0250288E6,2.7240445E6,-8.9349125E5],"split_indices":[4,1,1,2,1,2,1,2,0,2,0,0,4,0,1,1,0,2,13,0,1,1,1,3,2,2,0,2,2,1,0,14,0,1,2,0,17,0,5,0,2,5,2,0,0,2,0,2,0,15,5,0,0,0,14,0,0,1,1,3,0,0,0,0,0,0,0,0,0,0,0,0,0,0,0,0,0,0,0,0,0,0,0,0,0,0,0,0,0,0,0,0,0,0,0,0,0,0,0,0,0,0,0,0,0,0,0,0,0,0,0,0,0,0,0],"split_type":[0,0,0,0,0,0,0,0,0,0,0,0,0,0,0,0,0,0,0,0,0,0,0,0,0,0,0,0,0,0,0,0,0,0,0,0,0,0,0,0,0,0,0,0,0,0,0,0,0,0,0,0,0,0,0,0,0,0,0,0,0,0,0,0,0,0,0,0,0,0,0,0,0,0,0,0,0,0,0,0,0,0,0,0,0,0,0,0,0,0,0,0,0,0,0,0,0,0,0,0,0,0,0,0,0,0,0,0,0,0,0,0,0,0,0],"sum_hessian":[4.57E3,3.435E3,1.135E3,2.055E3,1.38E3,5.02E2,6.33E2,1.043E3,1.012E3,8.05E2,5.75E2,1.25E2,3.77E2,5.32E2,1.01E2,2.3E1,1.02E3,9.13E2,9.9E1,6.81E2,1.24E2,3.71E2,2.04E2,6.5E1,6E1,3.27E2,5E1,3.6E2,1.72E2,8.1E1,2E1,1.9E1,4E0,8.47E2,1.73E2,8.85E2,2.8E1,9.3E1,6E0,2.45E2,4.36E2,7E0,1.17E2,1.47E2,2.24E2,1.27E2,7.7E1,1.8E1,4.7E1,3E1,3E1,1.46E2,1.81E2,7E0,4.3E1,3.51E2,9E0,1.9E1,1.53E2,7.9E1,2E0,1.3E1,6E0,3E0,1E0,3.99E2,4.48E2,4.1E1,1.32E2,2.61E2,6.24E2,2E0,2.6E1,9.1E1,2E0,5E0,1E0,4.5E1,2E2,8.1E1,3.55E2,5E0,2E0,1.5E1,1.02E2,5.2E1,9.5E1,1E0,1.26E2,8E0,1E1,1.1E1,3.6E1,2.5E1,5E0,1.6E1,1.4E1,4.4E1,1.02E2,1.76E2,5E0,2E0,5E0,3.8E1,5E0,3.5E1,3.16E2,1.7E1,2E0,3E0,1.5E2,1.8E1,6.1E1,1E0,1E0],"tree_param":{"num_deleted":"0","num_feature":"19","num_nodes":"115","size_leaf_vector":"1"}},{"base_weights":[4.027846E4,-1.858005E6,4.206923E6,-3.0817066E5,-3.954404E6,8.2921495E6,8.6289625E5,2.1507878E6,-1.2505042E6,-2.811466E6,-5.345594E6,1.4798053E7,4.044601E6,2.3980212E6,-1.2861021E6,4.1531825E6,-1.5174439E5,-2.614159E5,-2.0151161E6,-2.212457E6,-5.6082635E6,-5.7080665E6,-4.663422E6,1.1883096E7,2.844028E7,2.9587905E6,1.2540452E7,1.613548E6,6.6030505E6,-6.4166844E5,-4.2860995E6,1.9541684E6,7.887316E6,-1.9744501E6,9.6039644E5,-1.0937634E6,9.247289E5,-2.3465512E6,4.5588256E5,-4.040678E6,-1.5981982E6,-6.21878E6,-3.6437685E6,-5.80913E6,-4.592323E6,-4.276459E6,-1.6962726E6,2.4878202E7,1.0238807E7,1.4036968E7,2.2384954E7,3.2299288E5,4.0809215E6,1.0384141E7,8.1848535E6,1.2638418E6,9.191601E6,1.0709562E7,5.6904585E6,-4.0188315E6,3.5371438E5,-2.5886735E6,-4.9852245E6,2.573533E6,-2.1672567E5,1.5651319E6,3.851606E6,-4.0498584E5,-1.1444902E6,6.156764E5,-3.3410912E5,1.6515298E5,-4.8802775E5,-1.5158276E6,3.718255E5,-1.1123324E6,-6.084555E5,-1.6508052E6,4.407338E5,-1.6109321E6,-8.702454E5,-6.026598E5,4.1130453E5,-2.4382558E6,-1.7867664E6,-6.836842E5,-1.2945435E6,-1.8293885E6,-1.6194535E6,1.9212481E5,-1.4266399E6,-1.2900861E6,-8.0320055E4,8.998557E6,2.6691608E6,2.187286E6,4.1279452E6,3.2756132E6,1.108361E7,4.198327E5,-1.1405305E6,1.7172709E6,7.089412E5,3.291022E6,-1.8700795E6,7.5063E5,-1.2006833E5,5.719428E5,5.7979705E6,3.387473E6,1.1965572E6,3.095204E5,-1.2613138E6,-3.383195E4,1.4442928E6,-9.3735044E5,1.0584336E6,-1.537567E6,7.1208E4],"categories":[],"categories_nodes":[],"categories_segments":[],"categories_sizes":[],"default_left":[0,0,0,0,0,0,0,0,0,0,0,0,0,0,0,0,0,0,0,0,0,0,0,0,0,0,0,0,0,0,0,0,0,0,0,0,0,0,0,0,0,0,0,0,0,0,0,0,0,0,0,0,0,0,0,0,0,0,0,0,0,0,0,0,0,0,0,0,0,0,0,0,0,0,0,0,0,0,0,0,0,0,0,0,0,0,0,0,0,0,0,0,0,0,0,0,0,0,0,0,0,0,0,0,0,0,0,0,0,0,0,0,0,0,0,0,0,0,0],"id":3,"left_children":[1,3,5,7,9,11,13,15,17,19,21,23,25,27,29,31,33,35,37,39,41,43,45,47,49,51,53,55,57,59,61,63,65,67,69,71,73,75,77,79,81,83,85,87,89,91,-1,93,95,-1,97,99,101,103,-1,105,107,-1,109,111,113,115,117,-1,-1,-1,-1,-1,-1,-1,-1,-1,-1,-1,-1,-1,-1,-1,-1,-1,-1,-1,-1,-1,-1,-1,-1,-1,-1,-1,-1,-1,-1,-1,-1,-1,-1,-1,-1,-1,-1,-1,-1,-1,-1,-1,-1,-1,-1,-1,-1,-1,-1,-1,-1,-1,-1,-1,-1],"loss_changes":[3.6162014E16,1.0204114E16,1.9541886E16,4.1897964E15,2.10768E15,1.7736536E16,2.6026812E15,2.3105297E15,9.879164E14,1.2189423E15,1.2198996E14,9.762731E15,3.569825E15,1.5067631E15,6.333053E14,2.185245E15,4.7623893E14,5.647509E14,6.046546E14,6.7520376E14,1.3205736E14,1.7073569E13,5.7869316E13,4.2538602E15,3.8415755E15,1.027965E15,1.11541535E15,1.01926916E15,1.7086255E15,9.1576856E14,5.5924165E13,3.0203735E15,1.2419182E15,9.714642E13,3.329195E14,2.9536285E14,4.501908E14,2.7416924E14,5.3937518E14,2.1470058E14,5.5878222E14,2.6736171E11,2.0404182E13,8.862665E12,3.4631865E13,1.3940927E13,0E0,1.6139413E15,1.8613894E15,0E0,5.439965E15,4.715305E14,6.7525046E14,4.578572E14,0E0,7.6958586E14,1.2183406E15,0E0,6.3178754E14,6.2439295E13,4.3959423E14,7.329691E13,3.0462727E13,0E0,0E0,0E0,0E0,0E0,0E0,0E0,0E0,0E0,0E0,0E0,0E0,0E0,0E0,0E0,0E0,0E0,0E0,0E0,0E0,0E0,0E0,0E0,0E0,0E0,0E0,0E0,0E0,0E0,0E0,0E0,0E0,0E0,0E0,0E0,0E0,0E0,0E0,0E0,0E0,0E0,0E0,0E0,0E0,0E0,0E0,0E0,0E0,0E0,0E0,0E0,0E0,0E0,0E0,0E0,0E0],"parents":[2147483647,0,0,1,1,2,2,3,3,4,4,5,5,6,6,7,7,8,8,9,9,10,10,11,11,12,12,13,13,14,14,15,15,16,16,17,17,18,18,19,19,20,20,21,21,22,22,23,23,24,24,25,25,26,26,27,27,28,28,29,29,30,30,31,31,32,32,33,33,34,34,35,35,36,36,37,37,38,38,39,39,40,40,41,41,42,42,43,43,44,44,45,45,47,47,48,48,50,50,51,51,52,52,53,53,55,55,56,56,58,58,59,59,60,60,61,61,62,62],"right_children":[2,4,6,8,10,12,14,16,18,20,22,24,26,28,30,32,34,36,38,40,42,44,46,48,50,52,54,56,58,60,62,64,66,68,70,72,74,76,78,80,82,84,86,88,90,92,-1,94,96,-1,98,100,102,104,-1,106,108,-1,110,112,114,116,118,-1,-1,-1,-1,-1,-1,-1,-1,-1,-1,-1,-1,-1,-1,-1,-1,-1,-1,-1,-1,-1,-1,-1,-1,-1,-1,-1,-1,-1,-1,-1,-1,-1,-1,-1,-1,-1,-1,-1,-1,-1,-1,-1,-1,-1,-1,-1,-1,-1,-1,-1,-1,-1,-1,-1,-1],"split_conditions":[1.125E3,1.9182516E1,1.9121311E1,7.284133E1,1.9262312E1,7.284571E1,1.9198822E1,1.910824E1,7.2877396E1,7.287654E1,9.45E2,1.7E3,1.75E3,1.688E3,7.287607E1,1.9041876E1,8.3E2,9.06E2,3E0,7.283059E1,1E0,1E0,1.9380144E1,7.281527E1,1.8970535E1,1.22E3,1.911926E1,4E0,3E0,7.282756E1,7.2877396E1,7.281737E1,1E0,1E0,7.2835014E1,1.9075535E1,1E0,7.2891304E1,7.288544E1,8.15E2,3E0,1E0,1.9188972E1,8.45E2,1.9278545E1,4E0,-1.6962726E6,1E0,1.9041876E1,1.4036968E7,1.9039152E1,1E0,1E0,7.292655E1,8.1848535E6,7.28559E1,1.9156092E1,1.0709562E7,7.283185E1,1.920105E1,4E0,1.55E3,4E0,2.573533E6,-2.1672567E5,1.5651319E6,3.851606E6,-4.0498584E5,-1.1444902E6,6.156764E5,-3.3410912E5,1.6515298E5,-4.8802775E5,-1.5158276E6,3.718255E5,-1.1123324E6,-6.084555E5,-1.6508052E6,4.407338E5,-1.6109321E6,-8.702454E5,-6.026598E5,4.1130453E5,-2.4382558E6,-1.7867664E6,-6.836842E5,-1.2945435E6,-1.8293885E6,-1.6194535E6,1.9212481E5,-1.4266399E6,-1.2900861E6,-8.0320055E4,8.998557E6,2.6691608E6,2.187286E6,4.1279452E6,3.2756132E6,1.108361E7,4.198327E5,-1.1405305E6,1.7172709E6,7.089412E5,3.291022E6,-1.8700795E6,7.5063E5,-1.2006833E5,5.719428E5,5.7979705E6,3.387473E6,1.1965572E6,3.095204E5,-1.2613138E6,-3.383195E4,1.4442928E6,-9.3735044E5,1.0584336E6,-1.537567E6,7.1208E4],"split_indices":[0,1,1,2,1,2,1,1,2,2,0,0,0,0,2,1,0,0,3,2,16,13,1,2,1,0,1,4,3,2,2,2,13,15,2,1,17,2,2,0,3,17,1,0,1,3,0,16,1,0,1,15,16,2,0,2,1,0,2,1,4,0,3,0,0,0,0,0,0,0,0,0,0,0,0,0,0,0,0,0,0,0,0,0,0,0,0,0,0,0,0,0,0,0,0,0,0,0,0,0,0,0,0,0,0,0,0,0,0,0,0,0,0,0,0,0,0,0,0],"split_type":[0,0,0,0,0,0,0,0,0,0,0,0,0,0,0,0,0,0,0,0,0,0,0,0,0,0,0,0,0,0,0,0,0,0,0,0,0,0,0,0,0,0,0,0,0,0,0,0,0,0,0,0,0,0,0,0,0,0,0,0,0,0,0,0,0,0,0,0,0,0,0,0,0,0,0,0,0,0,0,0,0,0,0,0,0,0,0,0,0,0,0,0,0,0,0,0,0,0,0,0,0,0,0,0,0,0,0,0,0,0,0,0,0,0,0,0,0,0,0],"sum_hessian":[4.57E3,3.14E3,1.43E3,1.806E3,1.334E3,6.43E2,7.87E2,5E2,1.306E3,7.34E2,6E2,2.53E2,3.9E2,4.59E2,3.28E2,2.67E2,2.33E2,5.7E2,7.36E2,6.06E2,1.28E2,3.87E2,2.13E2,2.1E2,4.3E1,3.47E2,4.3E1,3.88E2,7.1E1,2.71E2,5.7E1,1.69E2,9.8E1,8.8E1,1.45E2,3.35E2,2.35E2,6.49E2,8.7E1,1.51E2,4.55E2,9.6E1,3.2E1,3.51E2,3.6E1,1.57E2,5.6E1,2.2E1,1.88E2,9E0,3.4E1,1.04E2,2.43E2,3.9E1,4E0,3.72E2,1.6E1,1E0,7E1,6.1E1,2.1E2,1.8E1,3.9E1,4.8E1,1.21E2,6.5E1,3.3E1,6.7E1,2.1E1,9.5E1,5E1,8.2E1,2.53E2,1.1E1,2.24E2,1.21E2,5.28E2,1.2E1,7.5E1,6.8E1,8.3E1,4E2,5.5E1,8E0,8.8E1,1.2E1,2E1,1.98E2,1.53E2,1E0,3.5E1,1.56E2,1E0,1.6E1,6E0,1.04E2,8.4E1,2E1,1.4E1,8.3E1,2.1E1,1.23E2,1.2E2,3.8E1,1E0,2.13E2,1.59E2,1E1,6E0,1.5E1,5.5E1,2E0,5.9E1,1.91E2,1.9E1,1.7E1,1E0,3.8E1,1E0],"tree_param":{"num_deleted":"0","num_feature":"19","num_nodes":"119","size_leaf_vector":"1"}},{"base_weights":[4.2323246E4,-1.1624858E6,3.6864088E6,5.9330894E5,-2.2208252E6,6.976752E6,1.070117E6,4.3814375E6,-7.127064E4,-1.5349095E6,-3.4329308E6,1.6838276E7,5.290283E6,2.6812005E6,-6.011974E5,2.6115394E5,6.1936435E6,-7.8992305E6,2.9522285E4,-1.8863139E6,-3.0572012E5,-3.6498725E6,-1.7002965E6,1.1441962E7,2.7379004E7,4.0773685E6,1.2722183E7,6.6043385E6,1.6672149E6,3.1302512E5,-2.8597575E6,-3.673081E6,2.9860072E6,1.030897E7,4.457275E6,-1.2688448E7,3.2590515E6,-2.4993922E6,3.485482E5,-1.5028099E6,-2.8252528E6,3.015113E5,-1.9961964E6,-3.2576108E6,-4.1852282E6,1.2248684E6,-2.1340845E6,9.300429E6,2.885567E7,3.2265676E7,2.35652E6,5.8449805E6,2.3716998E6,1.5837495E7,3.9106565E6,2.03949E5,7.36025E6,1.0717116E6,6.157316E6,9.2804175E5,-4.5950285E6,-3.0958952E6,-3.9052966E5,-6.269343E5,-2.0329114E6,4.0958875E6,3.6779506E5,2.2452502E6,5.325745E6,4.521044E4,2.1466362E6,-5.0449245E6,-2.5550925E6,-1.4253419E6,5.2949725E6,-1.2782141E6,-4.460296E5,1.4037783E5,-1.6897231E6,-1.208884E6,-3.9453088E5,-1.7269086E6,-7.53475E5,1.3369238E5,-2.342733E6,-5.1747962E5,-2.5422282E6,-9.121963E5,-1.4369391E6,-1.298765E6,-1.01925175E6,-1.2785656E5,2.9079742E6,-9.775816E5,-1.6079342E5,3.340586E6,-2.421159E5,5.5796402E4,1.0792978E7,1.1171447E7,2.97018E6,-2.587715E6,2.1775525E6,-2.5495378E6,1.9146745E6,4.2975878E5,1.9998974E6,3.0273222E6,5.828301E6,-1.3342198E5,3.590902E6,1.0399467E6,-1.177564E6,2.8232835E6,1.5192642E6,1.5932961E5,1.4800718E6,3.885379E6,4.6269984E5,-5.68997E5,4.75469E5,-1.4409904E6,6.05268E4,-7.935678E5,-1.2614269E6,1.095477E6,-6.2012306E5],"categories":[],"categories_nodes":[],"categories_segments":[],"categories_sizes":[],"default_left":[0,0,0,0,0,0,0,0,0,0,0,0,0,0,0,0,0,0,0,0,0,0,0,0,0,0,0,0,0,0,0,0,0,0,0,0,0,0,0,0,0,0,0,0,0,0,0,0,0,0,0,0,0,0,0,0,0,0,0,0,0,0,0,0,0,0,0,0,0,0,0,0,0,0,0,0,0,0,0,0,0,0,0,0,0,0,0,0,0,0,0,0,0,0,0,0,0,0,0,0,0,0,0,0,0,0,0,0,0,0,0,0,0,0,0,0,0,0,0,0,0,0,0,0,0,0,0],"id":4,"left_children":[1,3,5,7,9,11,13,15,17,19,21,23,25,27,29,31,33,35,37,39,41,43,45,47,49,51,53,55,57,59,61,63,65,67,69,71,73,75,77,79,81,83,85,87,89,91,93,95,97,99,101,103,105,107,109,111,113,115,117,119,121,123,125,-1,-1,-1,-1,-1,-1,-1,-1,-1,-1,-1,-1,-1,-1,-1,-1,-1,-1,-1,-1,-1,-1,-1,-1,-1,-1,-1,-1,-1,-1,-1,-1,-1,-1,-1,-1,-1,-1,-1,-1,-1,-1,-1,-1,-1,-1,-1,-1,-1,-1,-1,-1,-1,-1,-1,-1,-1,-1,-1,-1,-1,-1,-1,-1],"loss_changes":[2.0072927E16,6.386185E15,9.771788E15,3.2554566E15,1.7772575E15,8.276389E15,1.7087377E15,1.4394755E15,8.6892544E14,5.9161644E14,2.8472627E14,3.83905E15,3.8332723E15,1.2738849E15,6.4512107E14,6.541806E14,9.1157674E14,7.895046E14,8.786578E14,3.7960666E14,3.1471403E14,1.30635725E14,1.142773E14,1.596231E15,2.8586046E15,1.1077027E15,1.5851049E15,3.1781523E14,6.832595E14,6.773976E14,5.126802E13,1.0867485E14,6.591288E14,6.87169E14,1.11443234E15,2.897197E13,6.602247E14,2.1125978E14,6.9306814E14,3.5469343E14,2.6871731E14,2.6767028E14,1.2771783E14,1.1873518E14,1.7843979E13,1.7191244E14,1.3663046E14,8.620931E14,1.0140823E15,1.8555182E15,3.3178377E14,1.4567794E15,7.6082675E14,7.117029E14,6.0202704E14,1.2137915E14,2.3014099E14,4.7547952E14,9.206433E14,3.7223394E14,2.5945025E13,2.9855257E13,6.8539357E13,0E0,0E0,0E0,0E0,0E0,0E0,0E0,0E0,0E0,0E0,0E0,0E0,0E0,0E0,0E0,0E0,0E0,0E0,0E0,0E0,0E0,0E0,0E0,0E0,0E0,0E0,0E0,0E0,0E0,0E0,0E0,0E0,0E0,0E0,0E0,0E0,0E0,0E0,0E0,0E0,0E0,0E0,0E0,0E0,0E0,0E0,0E0,0E0,0E0,0E0,0E0,0E0,0E0,0E0,0E0,0E0,0E0,0E0,0E0,0E0,0E0,0E0,0E0,0E0],"parents":[2147483647,0,0,1,1,2,2,3,3,4,4,5,5,6,6,7,7,8,8,9,9,10,10,11,11,12,12,13,13,14,14,15,15,16,16,17,17,18,18,19,19,20,20,21,21,22,22,23,23,24,24,25,25,26,26,27,27,28,28,29,29,30,30,31,31,32,32,33,33,34,34,35,35,36,36,37,37,38,38,39,39,40,40,41,41,42,42,43,43,44,44,45,45,46,46,47,47,48,48,49,49,50,50,51,51,52,52,53,53,54,54,55,55,56,56,57,57,58,58,59,59,60,60,61,61,62,62],"right_children":[2,4,6,8,10,12,14,16,18,20,22,24,26,28,30,32,34,36,38,40,42,44,46,48,50,52,54,56,58,60,62,64,66,68,70,72,74,76,78,80,82,84,86,88,90,92,94,96,98,100,102,104,106,108,110,112,114,116,118,120,122,124,126,-1,-1,-1,-1,-1,-1,-1,-1,-1,-1,-1,-1,-1,-1,-1,-1,-1,-1,-1,-1,-1,-1,-1,-1,-1,-1,-1,-1,-1,-1,-1,-1,-1,-1,-1,-1,-1,-1,-1,-1,-1,-1,-1,-1,-1,-1,-1,-1,-1,-1,-1,-1,-1,-1,-1,-1,-1,-1,-1,-1,-1,-1,-1,-1],"split_conditions":[3E0,1.9129387E1,1.9119478E1,7.28324E1,1.9234638E1,7.282735E1,1.9188972E1,8.39E2,1.8963299E1,1.065E3,1.15E3,1.53E3,4E0,7.283185E1,1.926522E1,7.282183E1,7.281988E1,9.3E2,7E2,7.287871E1,1E0,1.9309393E1,1.155E3,1.9019547E1,1E0,7.285445E1,7.286478E1,1.004E3,4E0,7.287607E1,1.65E3,7.281737E1,7.282335E1,1.165E3,1.898584E1,1.895412E1,7.2837074E1,6.04E2,7.293067E1,6.04E2,7.292655E1,1.7E3,7.3081184E1,7.288662E1,9.85E2,2E0,3E0,2E0,7.281191E1,3E0,1E0,1.895412E1,1.9117302E1,1.9041876E1,1.85E3,1E0,7.2829155E1,1.773E3,7.286954E1,7.282813E1,4E0,1E0,1.9305952E1,-6.269343E5,-2.0329114E6,4.0958875E6,3.6779506E5,2.2452502E6,5.325745E6,4.521044E4,2.1466362E6,-5.0449245E6,-2.5550925E6,-1.4253419E6,5.2949725E6,-1.2782141E6,-4.460296E5,1.4037783E5,-1.6897231E6,-1.208884E6,-3.9453088E5,-1.7269086E6,-7.53475E5,1.3369238E5,-2.342733E6,-5.1747962E5,-2.5422282E6,-9.121963E5,-1.4369391E6,-1.298765E6,-1.01925175E6,-1.2785656E5,2.9079742E6,-9.775816E5,-1.6079342E5,3.340586E6,-2.421159E5,5.5796402E4,1.0792978E7,1.1171447E7,2.97018E6,-2.587715E6,2.1775525E6,-2.5495378E6,1.9146745E6,4.2975878E5,1.9998974E6,3.0273222E6,5.828301E6,-1.3342198E5,3.590902E6,1.0399467E6,-1.177564E6,2.8232835E6,1.5192642E6,1.5932961E5,1.4800718E6,3.885379E6,4.6269984E5,-5.68997E5,4.75469E5,-1.4409904E6,6.05268E4,-7.935678E5,-1.2614269E6,1.095477E6,-6.2012306E5],"split_indices":[4,1,1,2,1,2,1,0,1,0,0,0,4,2,1,2,2,0,0,2,15,1,0,1,15,2,2,0,4,2,0,2,2,0,1,1,2,0,2,0,2,0,2,2,0,5,3,5,2,5,17,1,1,1,0,14,2,0,2,2,3,15,1,0,0,0,0,0,0,0,0,0,0,0,0,0,0,0,0,0,0,0,0,0,0,0,0,0,0,0,0,0,0,0,0,0,0,0,0,0,0,0,0,0,0,0,0,0,0,0,0,0,0,0,0,0,0,0,0,0,0,0,0,0,0,0,0],"split_type":[0,0,0,0,0,0,0,0,0,0,0,0,0,0,0,0,0,0,0,0,0,0,0,0,0,0,0,0,0,0,0,0,0,0,0,0,0,0,0,0,0,0,0,0,0,0,0,0,0,0,0,0,0,0,0,0,0,0,0,0,0,0,0,0,0,0,0,0,0,0,0,0,0,0,0,0,0,0,0,0,0,0,0,0,0,0,0,0,0,0,0,0,0,0,0,0,0,0,0,0,0,0,0,0,0,0,0,0,0,0,0,0,0,0,0,0,0,0,0,0,0,0,0,0,0,0,0],"sum_hessian":[4.57E3,3.435E3,1.135E3,1.292E3,2.143E3,5.02E2,6.33E2,1.92E2,1.1E3,1.37E3,7.73E2,7.2E1,4.3E2,3.22E2,3.11E2,5.9E1,1.33E2,1.3E1,1.087E3,1.065E3,3.05E2,6.86E2,8.7E1,4.9E1,2.3E1,3.71E2,5.9E1,6.5E1,2.57E2,2.22E2,8.9E1,2.4E1,3.5E1,3.8E1,9.5E1,9E0,4E0,1.21E2,9.66E2,7.58E2,3.07E2,2.25E2,8E1,4E2,2.86E2,1.1E1,7.6E1,4.5E1,4E0,1.9E1,4E0,1.81E2,1.9E2,4.3E1,1.6E1,7E0,5.8E1,2.28E2,2.9E1,1.98E2,2.4E1,8.1E1,8E0,1.7E1,7E0,4E0,3.1E1,2.9E1,9E0,3.7E1,5.8E1,3E0,6E0,3E0,1E0,4.3E1,7.8E1,9.48E2,1.8E1,5.1E1,7.07E2,2.8E1,2.79E2,2.22E2,3E0,7.8E1,2E0,3.53E2,4.7E1,2.38E2,4.8E1,1E1,1E0,4.4E1,3.2E1,3.8E1,7E0,1E0,3E0,1.5E1,4E0,1E0,3E0,6E0,1.75E2,1.57E2,3.3E1,1.8E1,2.5E1,1.1E1,5E0,4E0,3E0,2.9E1,2.9E1,2.01E2,2.7E1,1.1E1,1.8E1,3.7E1,1.61E2,2.3E1,1E0,6E1,2.1E1,2E0,6E0],"tree_param":{"num_deleted":"0","num_feature":"19","num_nodes":"127","size_leaf_vector":"1"}},{"base_weights":[3.8619816E4,-5.0947075E5,4.4723015E6,7.580357E5,-1.4193564E6,8.021823E6,1.5473422E6,4.9966575E6,4.3026997E5,-9.5478094E5,-2.546133E6,1.6886582E7,6.1501435E6,2.102241E6,-1.6075011E6,1.178171E7,3.1264718E6,-1.06192484E5,2.1483735E6,-1.309682E6,3.7729103E5,-2.2996312E6,-9.382142E5,1.1936508E7,2.702954E7,8.395521E6,3.3040872E6,-1.8444046E6,2.6209195E6,-1.1862226E6,-2.83697E6,1.2970357E7,-1.6547E6,5.8940035E6,-3.411009E5,-7.790119E6,-2.2372506E4,3.467414E6,2.0318773E5,-9.71821E5,-2.1832892E6,9.475509E4,5.0909035E6,-3.0329242E6,-2.0284432E6,1.5237731E7,3.2741765E6,3.3784716E7,-4.4975665E6,1.0214321E7,4.2970165E6,1.5216064E6,1.0344504E7,-4.2627245E6,5.3565425E5,2.0884155E6,6.133043E6,-2.1074072E6,-4.8208234E5,-3.3267872E6,2.357079E5,-1.2834012E6,4.171886E6,-2.0615701E4,-7.239993E5,1.6483445E4,3.3942072E6,-1.0958064E6,2.9777168E6,-3.513548E6,2.480933E5,1.693906E5,-2.8181003E5,-1.5730772E6,1.1955671E6,1.29042414E5,-3.3863628E6,-6.7405275E5,-2.003557E5,-1.6685494E6,-5.890288E5,9.8924675E5,-8.339119E4,4.8278995E6,1.05201805E5,-1.155219E6,-8.4046044E5,-6.5932325E5,-2.0827994E5,5.0590345E6,1.2125441E5,-8.3218625E5,2.0281704E6,2.9856698E6,1.1549643E7,-2.1995575E6,1.756524E5,2.0661716E6,4.3177465E6,-6.7058475E5,1.9178781E6,9.613687E4,1.8652564E6,4.884699E6,-9.765693E5,-2.8105975E6,-6.055504E5,7.701352E5,-4.6882966E5,4.0198428E5,1.3267322E6,4.9599025E6,1.3919179E6,-3.4668675E5,-9.5515494E5,-3.4999778E5,2.0718466E5,-2.4118252E5,-1.1798255E6],"categories":[],"categories_nodes":[],"categories_segments":[],"categories_sizes":[],"default_left":[0,0,0,0,0,0,0,0,0,0,0,0,0,0,0,0,0,0,0,0,0,0,0,0,0,0,0,0,0,0,0,0,0,0,0,0,0,0,0,0,0,0,0,0,0,0,0,0,0,0,0,0,0,0,0,0,0,0,0,0,0,0,0,0,0,0,0,0,0,0,0,0,0,0,0,0,0,0,0,0,0,0,0,0,0,0,0,0,0,0,0,0,0,0,0,0,0,0,0,0,0,0,0,0,0,0,0,0,0,0,0,0,0,0,0,0,0,0,0],"id":5,"left_children":[1,3,5,7,9,11,13,15,17,19,21,23,25,27,29,31,33,35,37,39,41,43,-1,45,47,49,51,53,55,57,59,61,63,65,67,69,71,73,75,77,79,81,83,85,87,89,91,93,95,97,99,101,103,105,107,109,111,113,115,117,-1,-1,-1,-1,-1,-1,-1,-1,-1,-1,-1,-1,-1,-1,-1,-1,-1,-1,-1,-1,-1,-1,-1,-1,-1,-1,-1,-1,-1,-1,-1,-1,-1,-1,-1,-1,-1,-1,-1,-1,-1,-1,-1,-1,-1,-1,-1,-1,-1,-1,-1,-1,-1,-1,-1,-1,-1,-1,-1],"loss_changes":[1.1110079E16,4.6937963E15,5.2098383E15,2.361007E15,1.2376759E15,3.6625258E15,4.8830067E14,1.5112607E15,1.4565112E15,7.942478E14,9.1813784E13,1.6354892E15,1.1800594E15,4.8793573E14,1.8388575E13,4.3671174E14,9.328822E14,7.759259E14,9.6402796E14,3.8925718E14,4.7096242E14,9.109062E13,0E0,7.508051E14,2.7076038E15,7.388165E14,1.05095944E15,1.6344418E14,3.7806772E14,2.0389283E13,2.035827E13,4.4692893E14,3.4436814E12,1.7083608E15,1.5322325E15,4.49004E14,6.4270186E14,1.031281E15,4.0386997E14,3.697883E14,2.6317506E14,4.0081994E14,1.0374058E15,1.3812212E13,7.978989E13,4.7548724E14,2.0852885E14,7.403364E14,4.751361E13,9.017552E14,4.7978784E14,3.8720197E14,1.4258012E15,1.4151333E14,6.795473E13,3.137646E14,3.4261343E14,1.066424E13,1.6861751E13,1.0597077E13,0E0,0E0,0E0,0E0,0E0,0E0,0E0,0E0,0E0,0E0,0E0,0E0,0E0,0E0,0E0,0E0,0E0,0E0,0E0,0E0,0E0,0E0,0E0,0E0,0E0,0E0,0E0,0E0,0E0,0E0,0E0,0E0,0E0,0E0,0E0,0E0,0E0,0E0,0E0,0E0,0E0,0E0,0E0,0E0,0E0,0E0,0E0,0E0,0E0,0E0,0E0,0E0,0E0,0E0,0E0,0E0,0E0,0E0,0E0],"parents":[2147483647,0,0,1,1,2,2,3,3,4,4,5,5,6,6,7,7,8,8,9,9,10,10,11,11,12,12,13,13,14,14,15,15,16,16,17,17,18,18,19,19,20,20,21,21,23,23,24,24,25,25,26,26,27,27,28,28,29,29,30,30,31,31,32,32,33,33,34,34,35,35,36,36,37,37,38,38,39,39,40,40,41,41,42,42,43,43,44,44,45,45,46,46,47,47,48,48,49,49,50,50,51,51,52,52,53,53,54,54,55,55,56,56,57,57,58,58,59,59],"right_children":[2,4,6,8,10,12,14,16,18,20,22,24,26,28,30,32,34,36,38,40,42,44,-1,46,48,50,52,54,56,58,60,62,64,66,68,70,72,74,76,78,80,82,84,86,88,90,92,94,96,98,100,102,104,106,108,110,112,114,116,118,-1,-1,-1,-1,-1,-1,-1,-1,-1,-1,-1,-1,-1,-1,-1,-1,-1,-1,-1,-1,-1,-1,-1,-1,-1,-1,-1,-1,-1,-1,-1,-1,-1,-1,-1,-1,-1,-1,-1,-1,-1,-1,-1,-1,-1,-1,-1,-1,-1,-1,-1,-1,-1,-1,-1,-1,-1,-1,-1],"split_conditions":[1.48E3,1.913132E1,1.9121311E1,7.2824326E1,1.9262312E1,7.282679E1,1.924806E1,1.895412E1,3E0,3E0,1.9405329E1,1.715E3,1E0,1E0,1.9380144E1,1E0,7.281737E1,1.895412E1,7.2869194E1,7.28803E1,4E0,8.25E2,-9.382142E5,1E0,1E0,7.287917E1,1.85E3,1E0,1E0,7.284628E1,1.9462158E1,7.279598E1,5.6E2,9.51E2,1.9032799E1,1E0,7.287959E1,1.8968409E1,7.293415E1,7.3E2,7.292655E1,1E0,1.916009E1,6.3E2,1E0,4E0,1.53E3,3E0,1.832E3,1.688E3,7.289204E1,1E0,1.9059906E1,1.566E3,7.289427E1,1.773E3,3E0,2E0,1.61E3,7.278857E1,2.357079E5,-1.2834012E6,4.171886E6,-2.0615701E4,-7.239993E5,1.6483445E4,3.3942072E6,-1.0958064E6,2.9777168E6,-3.513548E6,2.480933E5,1.693906E5,-2.8181003E5,-1.5730772E6,1.1955671E6,1.29042414E5,-3.3863628E6,-6.7405275E5,-2.003557E5,-1.6685494E6,-5.890288E5,9.8924675E5,-8.339119E4,4.8278995E6,1.05201805E5,-1.155219E6,-8.4046044E5,-6.5932325E5,-2.0827994E5,5.0590345E6,1.2125441E5,-8.3218625E5,2.0281704E6,2.9856698E6,1.1549643E7,-2.1995575E6,1.756524E5,2.0661716E6,4.3177465E6,-6.7058475E5,1.9178781E6,9.613687E4,1.8652564E6,4.884699E6,-9.765693E5,-2.8105975E6,-6.055504E5,7.701352E5,-4.6882966E5,4.0198428E5,1.3267322E6,4.9599025E6,1.3919179E6,-3.4668675E5,-9.5515494E5,-3.4999778E5,2.0718466E5,-2.4118252E5,-1.1798255E6],"split_indices":[0,1,1,2,1,2,1,1,3,3,1,0,5,8,1,11,2,1,2,2,4,0,0,5,15,2,0,5,13,2,1,2,0,0,1,13,2,1,2,0,2,8,1,0,13,3,0,4,0,0,2,14,1,0,2,0,3,5,0,2,0,0,0,0,0,0,0,0,0,0,0,0,0,0,0,0,0,0,0,0,0,0,0,0,0,0,0,0,0,0,0,0,0,0,0,0,0,0,0,0,0,0,0,0,0,0,0,0,0,0,0,0,0,0,0,0,0,0,0],"split_type":[0,0,0,0,0,0,0,0,0,0,0,0,0,0,0,0,0,0,0,0,0,0,0,0,0,0,0,0,0,0,0,0,0,0,0,0,0,0,0,0,0,0,0,0,0,0,0,0,0,0,0,0,0,0,0,0,0,0,0,0,0,0,0,0,0,0,0,0,0,0,0,0,0,0,0,0,0,0,0,0,0,0,0,0,0,0,0,0,0,0,0,0,0,0,0,0,0,0,0,0,0,0,0,0,0,0,0,0,0,0,0,0,0,0,0,0,0,0,0],"sum_hessian":[4.57E3,4.068E3,5.02E2,1.7E3,2.368E3,2.26E2,2.76E2,1.21E2,1.579E3,1.678E3,6.9E2,3.8E1,1.88E2,2.35E2,4.1E1,2.5E1,9.6E1,1.204E3,3.75E2,1.325E3,3.53E2,4.88E2,2.02E2,2.7E1,1.1E1,1.04E2,8.4E1,2.7E1,2.08E2,3.2E1,9E0,2.3E1,2E0,5.3E1,4.3E1,1.2E1,1.192E3,2.23E2,1.52E2,9.57E2,3.68E2,3.34E2,1.9E1,1.29E2,3.59E2,1.9E1,8E0,9E0,2E0,7.1E1,3.3E1,6.8E1,1.6E1,1.3E1,1.4E1,1.82E2,2.6E1,1.3E1,1.9E1,8E0,1E0,1E0,2.2E1,1E0,1E0,2.6E1,2.7E1,3.3E1,1E1,8E0,4E0,7.27E2,4.65E2,1.2E1,2.11E2,1.5E2,2E0,1.83E2,7.74E2,2.1E1,3.47E2,3.4E1,3E2,5E0,1.4E1,2.5E1,1.04E2,3.18E2,4.1E1,1.7E1,2E0,3E0,5E0,2E0,7E0,1E0,1E0,4.1E1,3E1,8E0,2.5E1,5.5E1,1.3E1,1.1E1,5E0,3E0,1E1,7E0,7E0,1.39E2,4.3E1,2E0,2.4E1,8E0,5E0,1.2E1,7E0,2E0,6E0],"tree_param":{"num_deleted":"0","num_feature":"19","num_nodes":"119","size_leaf_vector":"1"}},{"base_weights":[3.448389E4,-4.3701916E5,2.7007938E6,6.1333356E5,-1.02177606E6,1.1225452E7,2.2671838E6,3.3482232E6,1.2377848E5,-7.2359794E5,-1.8251225E6,1.5756325E7,1.9833964E6,1.5990816E6,5.9591605E6,1.7867178E6,7.855068E6,-4.9249656E4,4.8131895E6,-5.989884E5,-2.8409645E6,-2.0406815E6,-1.5283795E6,1.7876508E7,1.746379E6,-6.248566E6,1.4757857E7,2.225713E6,-8.232674E5,1.0893209E7,3.6889508E6,-1.7752108E5,4.91309E6,1.2524152E7,4.9625895E6,-1.2909898E5,6.376435E6,-1.9330334E6,8.255338E6,-1.04123325E6,4.352759E4,-2.268226E6,-3.6933122E6,-2.3277492E6,-1.880072E6,-7.075008E5,-1.4117249E6,1.387224E6,1.9734822E7,3.860183E6,-1.8749036E6,-8.1255735E6,1.03357325E6,1.8476036E6,5.531325E6,1.9167171E6,7.7714755E6,-1.4169855E6,3.4984645E4,3.5885482E6,3.542511E7,1.7912376E7,3.0071972E6,7.687551E5,-7.6569544E5,4.8465145E6,7.970078E5,4.3247853E5,4.3185295E6,2.2855702E6,-4.574603E5,-1.0367917E6,4.740348E3,-9.7582E5,3.166013E6,-1.3343689E6,2.4703764E5,1.2248415E6,3.2145142E6,-2.3066731E5,-5.8888306E5,-4.7388176E4,4.2009803E5,-6.0059175E5,-1.2336779E6,-3.9139575E5,-1.1361505E6,-7.522276E5,-5.0892122E5,-5.809065E5,2.7801002E4,-2.718884E5,-4.697932E5,-1.6388616E6,2.2631125E6,6.0812875E6,1.6734936E6,-2.8434718E6,-1.4376001E3,4.345564E5,1.4270669E6,5.817587E5,4.187302E6,1.8612462E5,-5.8700694E5,4.4898125E5,-3.7779962E5,-2.5513911E5,2.1411272E6,1.4215851E7,1.1044945E6,-4.794153E5,8.539985E6,1.8161305E5,1.7070984E6],"categories":[],"categories_nodes":[],"categories_segments":[],"categories_sizes":[],"default_left":[0,0,0,0,0,0,0,0,0,0,0,0,0,0,0,0,0,0,0,0,0,0,0,0,0,0,0,0,0,0,0,0,0,0,0,0,0,0,0,0,0,0,0,0,0,0,0,0,0,0,0,0,0,0,0,0,0,0,0,0,0,0,0,0,0,0,0,0,0,0,0,0,0,0,0,0,0,0,0,0,0,0,0,0,0,0,0,0,0,0,0,0,0,0,0,0,0,0,0,0,0,0,0,0,0,0,0,0,0,0,0,0,0,0,0],"id":6,"left_children":[1,3,5,7,9,11,13,15,17,19,21,23,25,27,29,31,33,35,37,39,41,43,45,47,49,51,53,55,57,59,61,63,65,67,69,71,73,75,77,79,81,83,85,87,89,-1,91,93,95,-1,-1,97,-1,-1,-1,99,101,103,105,107,109,111,113,-1,-1,-1,-1,-1,-1,-1,-1,-1,-1,-1,-1,-1,-1,-1,-1,-1,-1,-1,-1,-1,-1,-1,-1,-1,-1,-1,-1,-1,-1,-1,-1,-1,-1,-1,-1,-1,-1,-1,-1,-1,-1,-1,-1,-1,-1,-1,-1,-1,-1,-1,-1],"loss_changes":[5.747719E15,2.3867976E15,2.5139603E15,1.8606276E15,5.96572E14,1.3506102E15,1.6061054E15,1.4708695E15,9.5768906E14,4.7902233E14,4.005795E13,6.222608E14,1.3541219E15,8.4579556E14,1.07994805E15,9.71141E14,6.6713E14,5.852288E14,9.912608E14,4.8935052E14,4.0928086E13,1.3512772E13,2.4554328E13,5.5482656E14,4.361097E14,1.7355745E14,4.4668063E13,7.425236E14,5.8648936E13,5.42799E15,6.249146E14,6.4422966E14,1.5044268E15,3.939454E14,6.146862E14,5.4285914E14,5.974138E14,1.07645655E14,2.4362276E14,2.5453177E14,1.9240662E14,2.2699137E13,3.8024553E12,1.1060413E13,2.838148E13,0E0,1.8461548E13,1.6772783E14,1.5949361E13,0E0,0E0,7.684743E13,0E0,0E0,0E0,5.5160735E14,8.0276496E14,7.598635E13,9.269104E13,3.998703E14,2.4833383E15,6.6324435E14,4.3477424E14,0E0,0E0,0E0,0E0,0E0,0E0,0E0,0E0,0E0,0E0,0E0,0E0,0E0,0E0,0E0,0E0,0E0,0E0,0E0,0E0,0E0,0E0,0E0,0E0,0E0,0E0,0E0,0E0,0E0,0E0,0E0,0E0,0E0,0E0,0E0,0E0,0E0,0E0,0E0,0E0,0E0,0E0,0E0,0E0,0E0,0E0,0E0,0E0,0E0,0E0,0E0,0E0],"parents":[2147483647,0,0,1,1,2,2,3,3,4,4,5,5,6,6,7,7,8,8,9,9,10,10,11,11,12,12,13,13,14,14,15,15,16,16,17,17,18,18,19,19,20,20,21,21,22,22,23,23,24,24,25,25,26,26,27,27,28,28,29,29,30,30,31,31,32,32,33,33,34,34,35,35,36,36,37,37,38,38,39,39,40,40,41,41,42,42,43,43,44,44,46,46,47,47,48,48,51,51,55,55,56,56,57,57,58,58,59,59,60,60,61,61,62,62],"right_children":[2,4,6,8,10,12,14,16,18,20,22,24,26,28,30,32,34,36,38,40,42,44,46,48,50,52,54,56,58,60,62,64,66,68,70,72,74,76,78,80,82,84,86,88,90,-1,92,94,96,-1,-1,98,-1,-1,-1,100,102,104,106,108,110,112,114,-1,-1,-1,-1,-1,-1,-1,-1,-1,-1,-1,-1,-1,-1,-1,-1,-1,-1,-1,-1,-1,-1,-1,-1,-1,-1,-1,-1,-1,-1,-1,-1,-1,-1,-1,-1,-1,-1,-1,-1,-1,-1,-1,-1,-1,-1,-1,-1,-1,-1,-1,-1],"split_conditions":[1.36E3,1.9119677E1,1.897337E1,7.28324E1,1.9262312E1,1E0,4E0,1.9032799E1,1.9119186E1,7.304432E1,9.45E2,4E0,1.67E3,1.9198822E1,1.9063782E1,1.025E3,1.9055758E1,4E0,7.286417E1,9.95E2,7.316113E1,7.6E2,7.280569E1,3E0,1.425E3,4E0,4E0,4E0,1E0,1.905523E1,1.388E3,7.281817E1,1.8949541E1,7.6E2,1E0,6.04E2,1.9030779E1,1E0,9.35E2,1E0,1.9223907E1,3E0,1E0,7.287431E1,3E0,-7.075008E5,7.2849174E1,1.6E3,1.832E3,3.860183E6,-1.8749036E6,1.896139E1,1.03357325E6,1.8476036E6,5.531325E6,1E0,1.61E3,1.45E3,1.923584E1,7.283826E1,7.2839195E1,1.9129738E1,1.75E3,7.687551E5,-7.6569544E5,4.8465145E6,7.970078E5,4.3247853E5,4.3185295E6,2.2855702E6,-4.574603E5,-1.0367917E6,4.740348E3,-9.7582E5,3.166013E6,-1.3343689E6,2.4703764E5,1.2248415E6,3.2145142E6,-2.3066731E5,-5.8888306E5,-4.7388176E4,4.2009803E5,-6.0059175E5,-1.2336779E6,-3.9139575E5,-1.1361505E6,-7.522276E5,-5.0892122E5,-5.809065E5,2.7801002E4,-2.718884E5,-4.697932E5,-1.6388616E6,2.2631125E6,6.0812875E6,1.6734936E6,-2.8434718E6,-1.4376001E3,4.345564E5,1.4270669E6,5.817587E5,4.187302E6,1.8612462E5,-5.8700694E5,4.4898125E5,-3.7779962E5,-2.5513911E5,2.1411272E6,1.4215851E7,1.1044945E6,-4.794153E5,8.539985E6,1.8161305E5,1.7070984E6],"split_indices":[0,1,1,2,1,5,4,1,1,2,0,3,0,1,1,0,1,3,2,0,2,0,2,4,0,4,3,3,16,1,0,2,1,0,16,0,1,13,0,15,1,3,8,2,4,0,2,0,0,0,0,1,0,0,0,13,0,0,1,2,2,1,0,0,0,0,0,0,0,0,0,0,0,0,0,0,0,0,0,0,0,0,0,0,0,0,0,0,0,0,0,0,0,0,0,0,0,0,0,0,0,0,0,0,0,0,0,0,0,0,0,0,0,0,0],"split_type":[0,0,0,0,0,0,0,0,0,0,0,0,0,0,0,0,0,0,0,0,0,0,0,0,0,0,0,0,0,0,0,0,0,0,0,0,0,0,0,0,0,0,0,0,0,0,0,0,0,0,0,0,0,0,0,0,0,0,0,0,0,0,0,0,0,0,0,0,0,0,0,0,0,0,0,0,0,0,0,0,0,0,0,0,0,0,0,0,0,0,0,0,0,0,0,0,0,0,0,0,0,0,0,0,0,0,0,0,0,0,0,0,0,0,0],"sum_hessian":[4.57E3,3.884E3,6.86E2,1.389E3,2.495E3,3.2E1,6.54E2,2.1E2,1.179E3,1.821E3,6.74E2,2.1E1,1.1E1,5.55E2,9.9E1,1.57E2,5.3E1,1.138E3,4.1E1,1.721E3,1E2,3.87E2,2.87E2,1.8E1,3E0,7E0,4E0,4.41E2,1.14E2,3E1,6.9E1,9.7E1,6E1,1.9E1,3.4E1,1.125E3,1.3E1,1.4E1,2.7E1,1.019E3,7.02E2,6.2E1,3.8E1,1.34E2,2.53E2,3.3E1,2.54E2,2E0,1.6E1,1E0,2E0,6E0,1E0,2E0,2E0,4.19E2,2.2E1,6.7E1,4.7E1,2.4E1,6E0,2E0,6.7E1,4.5E1,5.2E1,9E0,5.1E1,3E0,1.6E1,2.4E1,1E1,4.6E1,1.079E3,4E0,9E0,7E0,7E0,1.1E1,1.6E1,7.88E2,2.31E2,6.12E2,9E1,5.6E1,6E0,2E0,3.6E1,1.02E2,3.2E1,2.46E2,7E0,6.1E1,1.93E2,1E0,1E0,1.5E1,1E0,5E0,1E0,3.61E2,5.8E1,1.2E1,1E1,1.4E1,5.3E1,2.2E1,2.5E1,1.1E1,1.3E1,4E0,2E0,1E0,1E0,3.6E1,3.1E1],"tree_param":{"num_deleted":"0","num_feature":"19","num_nodes":"115","size_leaf_vector":"1"}},{"base_weights":[3.7057688E4,-5.389036E5,1.2783896E6,-1.1626892E5,-1.0684852E6,3.8421188E6,5.858267E5,8.679413E5,-5.078025E5,-1.6364235E6,-8.765017E5,1.142576E7,3.0727805E6,4.06096E5,3.3748832E6,-1.3500229E6,1.3980829E6,-4.6875803E5,-4.4773045E6,-1.9454189E6,-1.5036634E6,-7.297899E5,-1.8524349E6,-1.9321525E6,1.2326011E7,2.1043895E6,1.08145E7,8.231827E5,-1.1983231E6,5.1811505E6,-2.4549425E6,-1.8029466E6,4.6661425E6,1.8023871E6,-1.1707782E6,-1.0541739E6,-2.2614192E5,-1.5325886E6,-2.6413722E5,-1.1986376E6,-2.4373745E6,-2.630972E5,-1.2669712E6,-2.1516548E6,-8.220817E5,1.4306696E7,7.496584E5,9.559655E6,1.5561176E6,4.052267E6,2.6894152E7,1.4663262E6,-1.8058336E5,-3.1045662E6,-8.4906075E5,3.6393645E6,5.776327E6,-5.8044175E5,-3.30274E6,-1.6633584E6,-4.409054E5,2.33467E6,1.1505503E5,9.122315E5,1.4621647E5,-2.6451595E6,3.8404902E4,-3.992388E5,1.3334747E5,-1.2418763E5,2.3576431E5,-3.4581273E4,-4.4106928E5,-1.1820932E5,-8.4336706E5,-8.600774E5,-5.559229E4,-3.88674E5,9.4245156E5,-9.253056E5,-5.302338E5,-4.9976725E5,1.6179697E5,4.875255E6,1.8269352E6,-1.7754919E6,1.1688679E6,5.7440485E6,1.1908294E6,-1.1490998E6,7.1802694E5,2.679073E6,2.5659912E5,1.1803242E7,4.4868962E5,3.0479135E6,4.0352434E5,-4.4845228E5,2.8158672E5,9.2642044E5,-1.2836241E6,-6.28095E5,-7.618566E4,2.6831295E6,5.0318847E5,3.6887147E5,-1.7596114E6],"categories":[],"categories_nodes":[],"categories_segments":[],"categories_sizes":[],"default_left":[0,0,0,0,0,0,0,0,0,0,0,0,0,0,0,0,0,0,0,0,0,0,0,0,0,0,0,0,0,0,0,0,0,0,0,0,0,0,0,0,0,0,0,0,0,0,0,0,0,0,0,0,0,0,0,0,0,0,0,0,0,0,0,0,0,0,0,0,0,0,0,0,0,0,0,0,0,0,0,0,0,0,0,0,0,0,0,0,0,0,0,0,0,0,0,0,0,0,0,0,0,0,0,0,0,0,0],"id":7,"left_children":[1,3,5,7,9,11,13,15,17,19,21,23,25,27,29,31,33,35,37,-1,39,41,43,-1,45,47,49,51,53,55,57,59,61,63,65,67,69,-1,-1,71,73,75,77,79,81,83,85,87,89,91,93,95,97,99,101,103,-1,105,-1,-1,-1,-1,-1,-1,-1,-1,-1,-1,-1,-1,-1,-1,-1,-1,-1,-1,-1,-1,-1,-1,-1,-1,-1,-1,-1,-1,-1,-1,-1,-1,-1,-1,-1,-1,-1,-1,-1,-1,-1,-1,-1,-1,-1,-1,-1,-1,-1],"loss_changes":[3.2687673E15,6.988643E14,2.570513E15,6.701814E14,1.496878E14,1.761882E15,5.710901E14,5.839258E14,1.9070517E14,2.1488701E14,1.4726993E14,5.2974127E14,2.083902E15,7.196878E14,7.393048E14,2.6999978E14,4.175508E14,1.748862E14,2.2751365E13,0E0,9.419729E13,2.2629817E14,3.9851995E13,0E0,6.083612E14,1.0110897E15,3.2617834E15,5.5093237E14,1.4516694E14,1.0799188E15,2.6620207E14,1.0407474E14,9.043072E13,5.6197003E14,5.4734083E14,1.5024916E14,1.6626075E14,0E0,0E0,7.603736E13,6.2296185E13,9.7705775E13,5.7040857E13,3.1817017E13,3.7658953E13,2.6845908E14,1.2796505E14,8.351035E14,1.0690418E15,3.5103694E14,2.7870574E15,5.3443057E14,4.9269184E14,2.6043628E14,1.3945415E14,4.949713E14,0E0,1.5069878E14,0E0,0E0,0E0,0E0,0E0,0E0,0E0,0E0,0E0,0E0,0E0,0E0,0E0,0E0,0E0,0E0,0E0,0E0,0E0,0E0,0E0,0E0,0E0,0E0,0E0,0E0,0E0,0E0,0E0,0E0,0E0,0E0,0E0,0E0,0E0,0E0,0E0,0E0,0E0,0E0,0E0,0E0,0E0,0E0,0E0,0E0,0E0,0E0,0E0],"parents":[2147483647,0,0,1,1,2,2,3,3,4,4,5,5,6,6,7,7,8,8,9,9,10,10,11,11,12,12,13,13,14,14,15,15,16,16,17,17,18,18,20,20,21,21,22,22,24,24,25,25,26,26,27,27,28,28,29,29,30,30,31,31,32,32,33,33,34,34,35,35,36,36,39,39,40,40,41,41,42,42,43,43,44,44,45,45,46,46,47,47,48,48,49,49,50,50,51,51,52,52,53,53,54,54,55,55,57,57],"right_children":[2,4,6,8,10,12,14,16,18,20,22,24,26,28,30,32,34,36,38,-1,40,42,44,-1,46,48,50,52,54,56,58,60,62,64,66,68,70,-1,-1,72,74,76,78,80,82,84,86,88,90,92,94,96,98,100,102,104,-1,106,-1,-1,-1,-1,-1,-1,-1,-1,-1,-1,-1,-1,-1,-1,-1,-1,-1,-1,-1,-1,-1,-1,-1,-1,-1,-1,-1,-1,-1,-1,-1,-1,-1,-1,-1,-1,-1,-1,-1,-1,-1,-1,-1,-1,-1,-1,-1,-1,-1],"split_conditions":[1.12E3,1.9177177E1,1.9059906E1,7.284133E1,7.282756E1,7.281592E1,4E0,7.3E2,7.304432E1,1.9186096E1,7.288469E1,1.8935106E1,1.905523E1,1E0,7.28708E1,2E0,2E0,7.86E2,1.9072083E1,-1.9454189E6,1E0,1.924806E1,1E0,-1.9321525E6,1E0,1.8949541E1,4E0,7.286786E1,1.910544E1,7.286478E1,1E0,1.896139E1,1.91258E1,1.9100386E1,1.8963299E1,1E0,1E0,-1.5325886E6,-2.6413722E5,1.9205378E1,1E0,5.71E2,4E0,1.9213976E1,9.35E2,2E0,3E0,7.282335E1,1.8976913E1,7.2839195E1,1E0,1.906805E1,7.2896355E1,1.175E3,1.206E3,1.9111397E1,5.776327E6,1E0,-3.30274E6,-1.6633584E6,-4.409054E5,2.33467E6,1.1505503E5,9.122315E5,1.4621647E5,-2.6451595E6,3.8404902E4,-3.992388E5,1.3334747E5,-1.2418763E5,2.3576431E5,-3.4581273E4,-4.4106928E5,-1.1820932E5,-8.4336706E5,-8.600774E5,-5.559229E4,-3.88674E5,9.4245156E5,-9.253056E5,-5.302338E5,-4.9976725E5,1.6179697E5,4.875255E6,1.8269352E6,-1.7754919E6,1.1688679E6,5.7440485E6,1.1908294E6,-1.1490998E6,7.1802694E5,2.679073E6,2.5659912E5,1.1803242E7,4.4868962E5,3.0479135E6,4.0352434E5,-4.4845228E5,2.8158672E5,9.2642044E5,-1.2836241E6,-6.28095E5,-7.618566E4,2.6831295E6,5.0318847E5,3.6887147E5,-1.7596114E6],"split_indices":[0,1,1,2,2,2,3,0,2,1,2,1,1,15,2,5,5,0,1,0,15,1,16,0,14,1,4,2,1,2,14,1,1,1,1,11,13,0,0,1,8,0,3,1,0,5,4,2,1,2,11,1,2,0,0,1,0,15,0,0,0,0,0,0,0,0,0,0,0,0,0,0,0,0,0,0,0,0,0,0,0,0,0,0,0,0,0,0,0,0,0,0,0,0,0,0,0,0,0,0,0,0,0,0,0,0,0],"split_type":[0,0,0,0,0,0,0,0,0,0,0,0,0,0,0,0,0,0,0,0,0,0,0,0,0,0,0,0,0,0,0,0,0,0,0,0,0,0,0,0,0,0,0,0,0,0,0,0,0,0,0,0,0,0,0,0,0,0,0,0,0,0,0,0,0,0,0,0,0,0,0,0,0,0,0,0,0,0,0,0,0,0,0,0,0,0,0,0,0,0,0,0,0,0,0,0,0,0,0,0,0,0,0,0,0,0,0],"sum_hessian":[4.57E3,3.122E3,1.448E3,1.737E3,1.385E3,3.07E2,1.141E3,4.94E2,1.243E3,3.48E2,1.037E3,2.7E1,2.8E2,1.073E3,6.8E1,9.5E1,3.99E2,1.232E3,1.1E1,8E0,3.4E2,9.03E2,1.34E2,1E0,2.6E1,2.5E2,3E1,8.52E2,2.21E2,5.2E1,1.6E1,8.9E1,6E0,3.45E2,5.4E1,3.6E2,8.72E2,9E0,2E0,2.58E2,8.2E1,4.84E2,4.19E2,1.03E2,3.1E1,2.2E1,4E0,1.6E1,2.34E2,2.2E1,8E0,5.19E2,3.33E2,3.3E1,1.88E2,4.8E1,4E0,1.4E1,2E0,6E0,8.3E1,3E0,3E0,1.77E2,1.68E2,7E0,4.7E1,3.04E2,5.6E1,7.36E2,1.36E2,5.2E1,2.06E2,1.3E1,6.9E1,1.3E1,4.71E2,4.17E2,2E0,2.8E1,7.5E1,1.9E1,1.2E1,1.7E1,5E0,1E0,3E0,5E0,1.1E1,3.1E1,2.03E2,8E0,1.4E1,5E0,3E0,6E0,5.13E2,1.53E2,1.8E2,5E0,2.8E1,6E1,1.28E2,1.2E1,3.6E1,1.1E1,3E0],"tree_param":{"num_deleted":"0","num_feature":"19","num_nodes":"107","size_leaf_vector":"1"}},{"base_weights":[3.1115525E4,-1.928691E5,1.842969E6,3.5519053E5,-5.0398122E5,3.5402838E6,4.2286706E5,2.5615588E5,5.4604745E6,-5.286668E5,3.5096115E6,7.591018E6,2.694635E6,-2.0785428E6,7.2619806E5,1.4178366E6,-2.0450653E5,-2.0379752E6,8.0570045E6,-2.940271E5,-8.264027E5,1.3163928E7,1.1901429E6,4.645613E6,1.6892854E7,4.1267782E6,9.352134E5,-4.986843E6,-7.943044E5,1.6368586E6,-1.9777034E5,7.035202E4,2.4779425E6,-1.3836084E5,-5.4041085E6,7.600203E5,-3.0529435E6,1.0825837E7,3.1623575E6,-5.136763E5,2.1882784E5,-1.3084241E6,-6.3019356E5,-4.687704E5,6.3925385E6,-1.7335121E6,3.615954E6,7.7682555E6,1.23262E6,1.9921004E7,-1.0998516E6,4.9253825E6,2.5281358E5,-8.702225E6,1.3830055E6,-6.6562555E6,-1.2360132E6,-4.152726E6,-4.546274E4,1.0989021E6,1.0471432E7,-1.0268558E6,1.6837855E6,1.2881921E6,-3.11104E5,1.1849789E6,3.4274862E5,-1.2558714E5,4.422184E5,-1.1379165E6,-2.8529812E6,-1.0880782E6,5.8644004E4,4.4824735E6,3.757003E5,1.5609365E6,-7.9606325E5,-5.1165928E5,-1.23279086E5,1.1320154E5,-5.785078E5,-9.861333E5,-3.019063E5,-1.3505506E5,-5.279143E5,-1.786333E5,1.3853944E6,-6.7693375E4,3.7761482E6,-1.57932E5,2.709208E6,1.9442644E6,8.006671E6,-1.716143E5,1.6940291E6,-4.3707212E5,2.9570878E6,1.4185981E5,-3.5754635E6,9.40956E4,1.7724466E6,-4.682343E5,-2.2089585E6,-6.9989756E5,3.082383E5,-3.39183E5,-1.4349685E6,5.531185E5,-5.7903225E5,-7.962947E5,5.1409947E5,9.7683494E5,8.0644995E6,1.0184023E6,-4.0250984E5,1.0573154E6,-1.6713708E5],"categories":[],"categories_nodes":[],"categories_segments":[],"categories_sizes":[],"default_left":[0,0,0,0,0,0,0,0,0,0,0,0,0,0,0,0,0,0,0,0,0,0,0,0,0,0,0,0,0,0,0,0,0,0,0,0,0,0,0,0,0,0,0,0,0,0,0,0,0,0,0,0,0,0,0,0,0,0,0,0,0,0,0,0,0,0,0,0,0,0,0,0,0,0,0,0,0,0,0,0,0,0,0,0,0,0,0,0,0,0,0,0,0,0,0,0,0,0,0,0,0,0,0,0,0,0,0,0,0,0,0,0,0,0,0,0,0],"id":8,"left_children":[1,3,5,7,9,11,13,15,17,19,21,23,25,27,29,31,33,35,37,39,41,43,45,47,49,51,53,55,57,59,61,63,65,67,69,-1,71,73,75,77,79,81,83,-1,-1,-1,85,87,89,91,-1,93,95,97,99,101,103,105,107,109,111,113,115,-1,-1,-1,-1,-1,-1,-1,-1,-1,-1,-1,-1,-1,-1,-1,-1,-1,-1,-1,-1,-1,-1,-1,-1,-1,-1,-1,-1,-1,-1,-1,-1,-1,-1,-1,-1,-1,-1,-1,-1,-1,-1,-1,-1,-1,-1,-1,-1,-1,-1,-1,-1,-1,-1],"loss_changes":[1.8553922E15,6.93976E14,1.2109138E15,7.438557E14,2.5906169E14,7.639842E14,2.101671E14,7.746414E14,5.615786E14,1.8006738E14,3.426192E14,9.9003184E14,4.774118E14,1.0808745E14,2.0731342E14,5.869294E14,3.55909E14,4.4852738E13,2.5036653E14,1.6288903E14,1.0670947E14,3.9311715E14,2.575546E14,3.2080896E14,6.3333615E14,3.236E14,3.8748977E14,4.8127927E13,5.513958E13,5.778174E14,1.9360536E14,8.556837E14,4.4761223E14,4.6381674E14,4.9919532E13,0E0,1.3760798E13,4.9351483E14,1.2062664E14,1.2322696E14,1.4844036E14,1.9273807E14,1.6390102E14,0E0,0E0,0E0,4.916902E13,6.191896E14,2.2423058E14,5.5472348E14,0E0,3.482499E14,3.2634836E14,1.2366355E14,4.0462155E14,1.0120805E13,1.2328989E13,2.2138333E12,7.120721E13,2.768145E14,7.4130525E14,1.24274375E14,1.5869887E14,0E0,0E0,0E0,0E0,0E0,0E0,0E0,0E0,0E0,0E0,0E0,0E0,0E0,0E0,0E0,0E0,0E0,0E0,0E0,0E0,0E0,0E0,0E0,0E0,0E0,0E0,0E0,0E0,0E0,0E0,0E0,0E0,0E0,0E0,0E0,0E0,0E0,0E0,0E0,0E0,0E0,0E0,0E0,0E0,0E0,0E0,0E0,0E0,0E0,0E0,0E0,0E0,0E0,0E0],"parents":[2147483647,0,0,1,1,2,2,3,3,4,4,5,5,6,6,7,7,8,8,9,9,10,10,11,11,12,12,13,13,14,14,15,15,16,16,17,17,18,18,19,19,20,20,21,21,22,22,23,23,24,24,25,25,26,26,27,27,28,28,29,29,30,30,31,31,32,32,33,33,34,34,36,36,37,37,38,38,39,39,40,40,41,41,42,42,46,46,47,47,48,48,49,49,51,51,52,52,53,53,54,54,55,55,56,56,57,57,58,58,59,59,60,60,61,61,62,62],"right_children":[2,4,6,8,10,12,14,16,18,20,22,24,26,28,30,32,34,36,38,40,42,44,46,48,50,52,54,56,58,60,62,64,66,68,70,-1,72,74,76,78,80,82,84,-1,-1,-1,86,88,90,92,-1,94,96,98,100,102,104,106,108,110,112,114,116,-1,-1,-1,-1,-1,-1,-1,-1,-1,-1,-1,-1,-1,-1,-1,-1,-1,-1,-1,-1,-1,-1,-1,-1,-1,-1,-1,-1,-1,-1,-1,-1,-1,-1,-1,-1,-1,-1,-1,-1,-1,-1,-1,-1,-1,-1,-1,-1,-1,-1,-1,-1,-1,-1],"split_conditions":[1.48E3,1.9119478E1,1.912419E1,1.911926E1,4E0,7.282679E1,1E0,7.284167E1,7.286401E1,1.9213053E1,1.916009E1,1.9019547E1,1E0,1E0,7.28516E1,1.900639E1,7.304432E1,7.28516E1,7.286462E1,1.08E3,7.283599E1,6.7E2,1.9175533E1,7.281191E1,4E0,1E0,1.8976913E1,1E0,1.9154783E1,7.284704E1,1.715E3,7.281462E1,1.907047E1,7.2907974E1,3E0,7.600203E5,2E0,1.9119328E1,1.091E3,1.9129738E1,4E0,1.9225811E1,7.2889946E1,-4.687704E5,6.3925385E6,-1.7335121E6,7.2806595E1,3E0,1E0,3E0,-1.0998516E6,7.283059E1,1E0,1.61E3,1.85E3,1.9137192E1,1.773E3,1.53E3,1.688E3,3E0,1.67E3,1.913449E1,1.9181124E1,1.2881921E6,-3.11104E5,1.1849789E6,3.4274862E5,-1.2558714E5,4.422184E5,-1.1379165E6,-2.8529812E6,-1.0880782E6,5.8644004E4,4.4824735E6,3.757003E5,1.5609365E6,-7.9606325E5,-5.1165928E5,-1.23279086E5,1.1320154E5,-5.785078E5,-9.861333E5,-3.019063E5,-1.3505506E5,-5.279143E5,-1.786333E5,1.3853944E6,-6.7693375E4,3.7761482E6,-1.57932E5,2.709208E6,1.9442644E6,8.006671E6,-1.716143E5,1.6940291E6,-4.3707212E5,2.9570878E6,1.4185981E5,-3.5754635E6,9.40956E4,1.7724466E6,-4.682343E5,-2.2089585E6,-6.9989756E5,3.082383E5,-3.39183E5,-1.4349685E6,5.531185E5,-5.7903225E5,-7.962947E5,5.1409947E5,9.7683494E5,8.0644995E6,1.0184023E6,-4.0250984E5,1.0573154E6,-1.6713708E5],"split_indices":[0,1,1,1,3,2,8,2,2,1,1,1,5,15,2,1,2,2,2,0,2,0,1,2,5,11,1,5,1,2,0,2,1,2,3,0,5,1,0,1,5,1,2,0,0,0,2,3,14,4,0,2,13,0,0,1,0,0,0,4,0,1,1,0,0,0,0,0,0,0,0,0,0,0,0,0,0,0,0,0,0,0,0,0,0,0,0,0,0,0,0,0,0,0,0,0,0,0,0,0,0,0,0,0,0,0,0,0,0,0,0,0,0,0,0,0,0],"split_type":[0,0,0,0,0,0,0,0,0,0,0,0,0,0,0,0,0,0,0,0,0,0,0,0,0,0,0,0,0,0,0,0,0,0,0,0,0,0,0,0,0,0,0,0,0,0,0,0,0,0,0,0,0,0,0,0,0,0,0,0,0,0,0,0,0,0,0,0,0,0,0,0,0,0,0,0,0,0,0,0,0,0,0,0,0,0,0,0,0,0,0,0,0,0,0,0,0,0,0,0,0,0,0,0,0,0,0,0,0,0,0,0,0,0,0,0,0],"sum_hessian":[4.57E3,4.068E3,5.02E2,1.473E3,2.595E3,2.28E2,2.74E2,1.446E3,2.7E1,2.58E3,1.5E1,3.8E1,1.9E2,2.9E1,2.45E2,4.1E2,1.036E3,7E0,2E1,1.444E3,1.136E3,2E0,1.3E1,3E1,8E0,1.04E2,8.6E1,8E0,2.1E1,1.23E2,1.22E2,1.81E2,2.29E2,1.024E3,1.2E1,1E0,6E0,1.2E1,8E0,1.011E3,4.33E2,3.27E2,8.09E2,1E0,1E0,3E0,1E1,1.5E1,1.5E1,7E0,1E0,8.6E1,1.8E1,3E0,8.3E1,5E0,3E0,3E0,1.8E1,1.17E2,6E0,8.5E1,3.7E1,3.7E1,1.44E2,1.08E2,1.21E2,8.73E2,1.51E2,1E1,2E0,5E0,1E0,8E0,4E0,6E0,2E0,7.9E1,9.32E2,4.04E2,2.9E1,4.2E1,2.85E2,6.99E2,1.1E2,2E0,8E0,6E0,9E0,1.3E1,2E0,3E0,4E0,1E1,7.6E1,1.6E1,2E0,1E0,2E0,6.8E1,1.5E1,1E0,4E0,2E0,1E0,1E0,2E0,9E0,9E0,1.6E1,1.01E2,5E0,1E0,5E0,8E1,2E1,1.7E1],"tree_param":{"num_deleted":"0","num_feature":"19","num_nodes":"117","size_leaf_vector":"1"}},{"base_weights":[2.8237518E4,-3.036626E5,8.529069E5,-4.4178547E5,4.216672E5,1.7741032E6,2.0827692E5,-7.885691E5,-8.9577164E4,2.677926E5,5.985988E6,8.651275E6,1.479167E6,3.133403E5,-2.4042378E6,-7.008909E5,-2.7749442E6,1.6719321E6,-2.2019461E5,-1.0612632E6,5.5967144E5,1.0236862E7,-3.7129562E6,1.1727391E7,-1.506268E6,1.2082408E6,5.4325585E6,-2.3941468E6,4.1081088E5,-1.7768601E6,-1.8113935E6,-2.1155502E6,-6.129762E5,3.5542075E6,-3.4390945E6,1.0577472E6,8.142202E6,-3.357E5,7.7552E5,-3.9000612E6,-7.4447225E5,1.6017749E6,4.5899336E4,-1.470516E6,1.5464383E7,-1.9069824E6,1.68347E5,1.4593645E7,6.6786505E6,3.579272E6,-1.4831569E6,2.4062272E6,1.5305167E5,-5.2629865E6,7.530441E6,-1.3774101E6,-4.1616038E6,2.6368306E5,1.8870861E6,-1.9363481E6,3.5547422E5,-4.585917E5,-1.2291248E6,1.1596808E6,-1.956919E5,-3.976251E5,2.6626912E6,-1.9460654E6,-6.195937E5,-1.14852945E5,7.2324175E5,6.746885E6,8.639308E5,-1.5182044E5,1.5618628E5,2.88634E6,1.6962748E5,2.5304002E5,-1.6127552E6,-8.7771506E5,-1.3311402E5,1.2038048E6,1.0581157E5,8.0221766E4,-9.6162394E5,-8.905E5,4.534404E5,5.861366E6,-1.3464955E6,-3.284595E5,4.0421566E5,5.218967E6,6.763996E5,5.4999575E5,2.765756E6,1.4859145E6,1.2475801E5,6.144918E5,3.0012255E6,1.3904475E5,-1.3829959E6,4.0964162E5,-2.6755752E6,3.3029008E6,5.921994E5,-1.176203E6,1.7923719E5,-3.887111E5,-1.858555E6,2.361564E3,3.3970744E5,9.4664906E5,-3.3738384E5,-6.870838E5,-3.7365225E5],"categories":[],"categories_nodes":[],"categories_segments":[],"categories_sizes":[],"default_left":[0,0,0,0,0,0,0,0,0,0,0,0,0,0,0,0,0,0,0,0,0,0,0,0,0,0,0,0,0,0,0,0,0,0,0,0,0,0,0,0,0,0,0,0,0,0,0,0,0,0,0,0,0,0,0,0,0,0,0,0,0,0,0,0,0,0,0,0,0,0,0,0,0,0,0,0,0,0,0,0,0,0,0,0,0,0,0,0,0,0,0,0,0,0,0,0,0,0,0,0,0,0,0,0,0,0,0,0,0,0,0,0,0,0,0],"id":9,"left_children":[1,3,5,7,9,11,13,15,17,19,21,23,25,27,29,31,33,35,37,39,41,43,45,47,49,51,53,55,57,59,-1,61,63,65,67,69,71,73,75,77,79,81,83,85,87,-1,89,91,93,95,-1,97,99,101,103,105,107,109,111,113,-1,-1,-1,-1,-1,-1,-1,-1,-1,-1,-1,-1,-1,-1,-1,-1,-1,-1,-1,-1,-1,-1,-1,-1,-1,-1,-1,-1,-1,-1,-1,-1,-1,-1,-1,-1,-1,-1,-1,-1,-1,-1,-1,-1,-1,-1,-1,-1,-1,-1,-1,-1,-1,-1,-1],"loss_changes":[1.2513776E15,3.2678816E14,7.787364E14,3.3447108E14,4.4533734E14,1.08249966E15,2.1292612E14,2.3839847E14,3.132822E14,1.980469E14,6.152148E14,7.05072E14,5.4932538E14,1.9732533E14,5.7663174E13,1.6324392E14,2.560268E14,3.6493817E14,1.4597854E14,7.9832654E13,2.2372523E14,6.3474624E14,5.237417E13,1.4854064E14,1.2258736E14,6.152495E14,7.8008645E14,4.0990765E13,1.5567002E14,1.5048332E13,0E0,8.328683E13,2.2217208E14,1.675634E14,2.0851355E14,1.7050364E14,5.3925355E14,1.6599424E14,2.3987139E14,6.753836E13,5.3808223E13,4.141567E14,2.0322968E14,2.2352409E13,6.5663406E14,0E0,5.943332E12,3.0662724E14,8.157616E13,1.0977685E13,0E0,5.9954E14,3.8657095E14,1.5756395E14,5.1956676E14,9.274949E13,4.4425196E13,1.455431E14,2.5185333E14,3.5047017E12,0E0,0E0,0E0,0E0,0E0,0E0,0E0,0E0,0E0,0E0,0E0,0E0,0E0,0E0,0E0,0E0,0E0,0E0,0E0,0E0,0E0,0E0,0E0,0E0,0E0,0E0,0E0,0E0,0E0,0E0,0E0,0E0,0E0,0E0,0E0,0E0,0E0,0E0,0E0,0E0,0E0,0E0,0E0,0E0,0E0,0E0,0E0,0E0,0E0,0E0,0E0,0E0,0E0,0E0,0E0],"parents":[2147483647,0,0,1,1,2,2,3,3,4,4,5,5,6,6,7,7,8,8,9,9,10,10,11,11,12,12,13,13,14,14,15,15,16,16,17,17,18,18,19,19,20,20,21,21,22,22,23,23,24,24,25,25,26,26,27,27,28,28,29,29,31,31,32,32,33,33,34,34,35,35,36,36,37,37,38,38,39,39,40,40,41,41,42,42,43,43,44,44,46,46,47,47,48,48,49,49,51,51,52,52,53,53,54,54,55,55,56,56,57,57,58,58,59,59],"right_children":[2,4,6,8,10,12,14,16,18,20,22,24,26,28,30,32,34,36,38,40,42,44,46,48,50,52,54,56,58,60,-1,62,64,66,68,70,72,74,76,78,80,82,84,86,88,-1,90,92,94,96,-1,98,100,102,104,106,108,110,112,114,-1,-1,-1,-1,-1,-1,-1,-1,-1,-1,-1,-1,-1,-1,-1,-1,-1,-1,-1,-1,-1,-1,-1,-1,-1,-1,-1,-1,-1,-1,-1,-1,-1,-1,-1,-1,-1,-1,-1,-1,-1,-1,-1,-1,-1,-1,-1,-1,-1,-1,-1,-1,-1,-1,-1],"split_conditions":[3E0,1E0,1.9119328E1,1E0,1.36E3,7.281592E1,7.296673E1,3E0,1.9038439E1,7.05E2,1.9183819E1,1E0,1.85E3,7.6E2,7.3192604E1,6.04E2,7.280413E1,3E0,1E0,1.8999964E1,1.910824E1,7.282589E1,1.924078E1,1.8968409E1,7.2806595E1,7.28516E1,1.9013693E1,7.2E2,4E0,1.638E3,-1.8113935E6,1E0,1.8949541E1,9.1E2,1.900639E1,7.284112E1,1.06E3,7.2909035E1,1.9050568E1,7.281462E1,5.6E2,7.2836235E1,1E0,1.67E3,1.7E3,-1.9069824E6,1.53E3,2E0,1.206E3,1.104E3,-1.4831569E6,1.9109192E1,1.715E3,1E0,1.9059906E1,7.2831E1,7.285445E1,2E0,7.286954E1,1.34E3,3.5547422E5,-4.585917E5,-1.2291248E6,1.1596808E6,-1.956919E5,-3.976251E5,2.6626912E6,-1.9460654E6,-6.195937E5,-1.14852945E5,7.2324175E5,6.746885E6,8.639308E5,-1.5182044E5,1.5618628E5,2.88634E6,1.6962748E5,2.5304002E5,-1.6127552E6,-8.7771506E5,-1.3311402E5,1.2038048E6,1.0581157E5,8.0221766E4,-9.6162394E5,-8.905E5,4.534404E5,5.861366E6,-1.3464955E6,-3.284595E5,4.0421566E5,5.218967E6,6.763996E5,5.4999575E5,2.765756E6,1.4859145E6,1.2475801E5,6.144918E5,3.0012255E6,1.3904475E5,-1.3829959E6,4.0964162E5,-2.6755752E6,3.3029008E6,5.921994E5,-1.176203E6,1.7923719E5,-3.887111E5,-1.858555E6,2.361564E3,3.3970744E5,9.4664906E5,-3.3738384E5,-6.870838E5,-3.7365225E5],"split_indices":[3,13,1,16,0,2,2,4,1,0,1,16,0,0,2,0,2,4,11,1,1,2,1,1,2,2,1,0,4,0,0,5,1,0,1,2,0,2,1,2,0,2,11,0,0,0,0,5,0,0,0,1,0,5,1,2,2,5,2,0,0,0,0,0,0,0,0,0,0,0,0,0,0,0,0,0,0,0,0,0,0,0,0,0,0,0,0,0,0,0,0,0,0,0,0,0,0,0,0,0,0,0,0,0,0,0,0,0,0,0,0,0,0,0,0],"split_type":[0,0,0,0,0,0,0,0,0,0,0,0,0,0,0,0,0,0,0,0,0,0,0,0,0,0,0,0,0,0,0,0,0,0,0,0,0,0,0,0,0,0,0,0,0,0,0,0,0,0,0,0,0,0,0,0,0,0,0,0,0,0,0,0,0,0,0,0,0,0,0,0,0,0,0,0,0,0,0,0,0,0,0,0,0,0,0,0,0,0,0,0,0,0,0,0,0,0,0,0,0,0,0,0,0,0,0,0,0,0,0,0,0,0,0],"sum_hessian":[4.57E3,3.259E3,1.311E3,2.738E3,5.21E2,5.39E2,7.72E2,1.379E3,1.359E3,5.08E2,1.3E1,2.1E1,5.18E2,7.43E2,2.9E1,1.322E3,5.7E1,9.3E1,1.266E3,9.1E1,4.17E2,9E0,4E0,1.6E1,5E0,4.86E2,3.2E1,2.5E1,7.18E2,2.6E1,3E0,7.6E1,1.246E3,5E0,5.2E1,8.6E1,7E0,1.135E3,1.31E2,8E0,8.3E1,1.37E2,2.8E2,3E0,6E0,2E0,2E0,9E0,7E0,2E0,3E0,2.27E2,2.59E2,5E0,2.7E1,1.7E1,8E0,6.54E2,6.4E1,2.5E1,1E0,6E1,1.6E1,1E1,1.236E3,3E0,2E0,1.5E1,3.7E1,4.2E1,4.4E1,1E0,6E0,9.47E2,1.88E2,2E0,1.29E2,2E0,6E0,9E0,7.4E1,4.6E1,9.1E1,2.63E2,1.7E1,2E0,1E0,5E0,1E0,1E0,1E0,7E0,2E0,3E0,4E0,1E0,1E0,2.18E2,9E0,2.44E2,1.5E1,2E0,3E0,1.6E1,1.1E1,7E0,1E1,4E0,4E0,5.06E2,1.48E2,4.5E1,1.9E1,1.5E1,1E1],"tree_param":{"num_deleted":"0","num_feature":"19","num_nodes":"115","size_leaf_vector":"1"}},{"base_weights":[2.394243E4,-2.698688E5,5.1338544E5,-3.8857988E5,3.129617E5,5.945023E6,4.490304E5,-4.9295897E5,4.0990984E5,-5.591893E5,7.063205E5,7.4988805E6,-2.145129E6,8.988958E5,-2.0337067E5,-1.5186319E6,-4.115791E5,1.5009901E6,-1.5586739E5,-3.743252E6,-2.573763E5,2.0941981E6,1.7004384E5,1.253079E7,3.61504E6,8.8040525E5,-1.4449885E6,2.7603608E6,5.865267E5,-1.2937764E6,4.3582164E4,-3.648883E6,-9.0749825E5,-1.4428809E6,-3.5319138E5,3.431514E5,4.217926E6,2.5878911E5,-8.885786E5,6.747733E5,-4.6078725E6,5.003455E3,-2.0214292E6,4.5074355E6,6.2712194E5,-2.8911377E4,2.1609102E6,4.790904E5,1.4086933E7,-6.444253E6,8.1928065E6,2.154783E6,7.1576305E6,-3.3934608E6,7.442505E5,-2.2799962E6,-5.6644775E5,7.700334E6,-1.0894905E4,-4.787339E5,-2.7523918E6,-2.1200848E5,-8.55386E5,-3.7724453E5,-1.2784459E6,-1.909881E4,-1.7443167E5,4.8824822E5,-3.3373725E5,-4.7475553E5,1.417494E6,-2.7001675E5,2.687395E5,-3.9341706E5,-1.6867128E5,-1.14517805E5,4.181658E5,-1.5210544E6,2.2821E3,-8.323375E5,6.731723E4,-1.9881686E5,-1.0910916E6,2.4490728E5,2.9957225E6,-3.766575E5,3.892404E5,3.650827E5,-1.14484836E5,4.867497E6,2.155721E5,4.730771E6,8.5131244E5,8.8816805E4,-2.6369125E6,2.800846E6,2.8407002E4,8.391087E5,-1.0538556E5,2.7673105E6,-1.6685801E6,-1.5878169E6,1.8106011E6,1.3021524E5,6.687919E5,-3.658962E5,-1.2064788E6,-4.3416594E4,-9.0209056E5,5.778345E5,2.6949105E6,2.5156127E5,-1.1414027E5],"categories":[],"categories_nodes":[],"categories_segments":[],"categories_sizes":[],"default_left":[0,0,0,0,0,0,0,0,0,0,0,0,0,0,0,0,0,0,0,0,0,0,0,0,0,0,0,0,0,0,0,0,0,0,0,0,0,0,0,0,0,0,0,0,0,0,0,0,0,0,0,0,0,0,0,0,0,0,0,0,0,0,0,0,0,0,0,0,0,0,0,0,0,0,0,0,0,0,0,0,0,0,0,0,0,0,0,0,0,0,0,0,0,0,0,0,0,0,0,0,0,0,0,0,0,0,0,0,0,0,0,0,0],"id":10,"left_children":[1,3,5,7,9,11,13,15,17,19,21,23,25,27,29,31,33,35,37,39,41,43,45,47,49,-1,-1,51,53,55,57,59,61,63,65,67,69,71,73,75,77,79,81,83,85,87,89,-1,91,93,95,97,99,101,103,105,107,109,111,-1,-1,-1,-1,-1,-1,-1,-1,-1,-1,-1,-1,-1,-1,-1,-1,-1,-1,-1,-1,-1,-1,-1,-1,-1,-1,-1,-1,-1,-1,-1,-1,-1,-1,-1,-1,-1,-1,-1,-1,-1,-1,-1,-1,-1,-1,-1,-1,-1,-1,-1,-1,-1,-1],"loss_changes":[6.5746594E14,1.9779296E14,5.968143E14,1.9806463E14,1.6644E14,2.6750499E14,4.9794643E14,1.7466008E14,1.6999375E14,1.441463E14,2.4823552E14,2.8693395E14,6.8418145E13,5.821711E14,1.866666E14,1.9717634E14,1.16729695E14,2.9425532E14,5.5525824E13,5.2768153E13,6.4346512E13,3.2643077E14,9.591704E13,9.660576E13,5.593366E14,0E0,0E0,3.680328E14,5.4300872E14,9.052367E13,2.3617233E14,3.7108752E14,4.5213616E13,4.8988212E13,1.2182227E14,1.2706705E14,8.9829275E13,8.717506E13,8.369419E12,2.8113085E12,2.3510097E13,7.5015555E13,3.7100565E13,6.995779E14,7.608848E13,9.757588E13,4.3461415E14,0E0,6.87992E13,6.5838627E13,7.318755E13,2.0699998E14,4.982013E14,6.2289924E14,3.809227E14,9.48164E13,7.675712E13,1.232404E13,1.7705993E14,0E0,0E0,0E0,0E0,0E0,0E0,0E0,0E0,0E0,0E0,0E0,0E0,0E0,0E0,0E0,0E0,0E0,0E0,0E0,0E0,0E0,0E0,0E0,0E0,0E0,0E0,0E0,0E0,0E0,0E0,0E0,0E0,0E0,0E0,0E0,0E0,0E0,0E0,0E0,0E0,0E0,0E0,0E0,0E0,0E0,0E0,0E0,0E0,0E0,0E0,0E0,0E0,0E0,0E0],"parents":[2147483647,0,0,1,1,2,2,3,3,4,4,5,5,6,6,7,7,8,8,9,9,10,10,11,11,12,12,13,13,14,14,15,15,16,16,17,17,18,18,19,19,20,20,21,21,22,22,23,23,24,24,27,27,28,28,29,29,30,30,31,31,32,32,33,33,34,34,35,35,36,36,37,37,38,38,39,39,40,40,41,41,42,42,43,43,44,44,45,45,46,46,48,48,49,49,50,50,51,51,52,52,53,53,54,54,55,55,56,56,57,57,58,58],"right_children":[2,4,6,8,10,12,14,16,18,20,22,24,26,28,30,32,34,36,38,40,42,44,46,48,50,-1,-1,52,54,56,58,60,62,64,66,68,70,72,74,76,78,80,82,84,86,88,90,-1,92,94,96,98,100,102,104,106,108,110,112,-1,-1,-1,-1,-1,-1,-1,-1,-1,-1,-1,-1,-1,-1,-1,-1,-1,-1,-1,-1,-1,-1,-1,-1,-1,-1,-1,-1,-1,-1,-1,-1,-1,-1,-1,-1,-1,-1,-1,-1,-1,-1,-1,-1,-1,-1,-1,-1,-1,-1,-1,-1,-1,-1],"split_conditions":[1.076E3,1E0,1.8949541E1,1E0,7.6E2,4E0,1.916009E1,1E0,1.911549E1,1.8999964E1,7.2836235E1,7.282335E1,1.13E3,7.2829155E1,7.283185E1,1.907907E1,6.04E2,1E0,1.9230865E1,7.281462E1,7.2897064E1,1.9100386E1,1.031E3,1.104E3,7.282391E1,8.8040525E5,-1.4449885E6,1.773E3,1.8995232E1,1.22E3,7.283207E1,1E0,1.031E3,3E0,7.2854546E1,7.287917E1,6.04E2,1.915146E1,7.286478E1,5.6E2,1E0,5.6E2,6.7E2,1.9004015E1,1.913844E1,8.39E2,1.04E3,4.790904E5,1E0,1.206E3,1E0,1.59E3,1E0,1E0,1E0,7.282391E1,1.67E3,1.9191118E1,7.28545E1,-4.787339E5,-2.7523918E6,-2.1200848E5,-8.55386E5,-3.7724453E5,-1.2784459E6,-1.909881E4,-1.7443167E5,4.8824822E5,-3.3373725E5,-4.7475553E5,1.417494E6,-2.7001675E5,2.687395E5,-3.9341706E5,-1.6867128E5,-1.14517805E5,4.181658E5,-1.5210544E6,2.2821E3,-8.323375E5,6.731723E4,-1.9881686E5,-1.0910916E6,2.4490728E5,2.9957225E6,-3.766575E5,3.892404E5,3.650827E5,-1.14484836E5,4.867497E6,2.155721E5,4.730771E6,8.5131244E5,8.8816805E4,-2.6369125E6,2.800846E6,2.8407002E4,8.391087E5,-1.0538556E5,2.7673105E6,-1.6685801E6,-1.5878169E6,1.8106011E6,1.3021524E5,6.687919E5,-3.658962E5,-1.2064788E6,-4.3416594E4,-9.0209056E5,5.778345E5,2.6949105E6,2.5156127E5,-1.1414027E5],"split_indices":[0,13,1,11,0,3,1,17,1,1,2,2,0,2,2,1,0,16,1,2,2,1,0,0,2,0,0,0,1,0,2,15,0,4,2,2,0,1,2,0,5,0,0,1,1,0,0,0,13,0,5,0,15,13,14,2,0,1,2,0,0,0,0,0,0,0,0,0,0,0,0,0,0,0,0,0,0,0,0,0,0,0,0,0,0,0,0,0,0,0,0,0,0,0,0,0,0,0,0,0,0,0,0,0,0,0,0,0,0,0,0,0,0],"split_type":[0,0,0,0,0,0,0,0,0,0,0,0,0,0,0,0,0,0,0,0,0,0,0,0,0,0,0,0,0,0,0,0,0,0,0,0,0,0,0,0,0,0,0,0,0,0,0,0,0,0,0,0,0,0,0,0,0,0,0,0,0,0,0,0,0,0,0,0,0,0,0,0,0,0,0,0,0,0,0,0,0,0,0,0,0,0,0,0,0,0,0,0,0,0,0,0,0,0,0,0,0,0,0,0,0,0,0,0,0,0,0,0,0],"sum_hessian":[4.57E3,2.856E3,1.714E3,2.373E3,4.83E2,1.9E1,1.695E3,2.099E3,2.74E2,1.5E2,3.33E2,1.6E1,3E0,1.003E3,6.92E2,1.53E2,1.946E3,9.3E1,1.81E2,1.2E1,1.38E2,9.2E1,2.41E2,6E0,1E1,1E0,2E0,1.43E2,8.6E2,1.27E2,5.65E2,3.3E1,1.2E2,1.03E2,1.843E3,6.6E1,2.7E1,1.16E2,6.5E1,2E0,1E1,1.21E2,1.7E1,3.4E1,5.8E1,2.2E2,2.1E1,1E0,5E0,3E0,7E0,1.27E2,1.6E1,3.2E1,8.28E2,5.3E1,7.4E1,3E0,5.62E2,2.5E1,8E0,1.1E2,1E1,9.8E1,5E0,8.13E2,1.03E3,3.5E1,3.1E1,2E0,2.5E1,4.1E1,7.5E1,2.7E1,3.8E1,1E0,1E0,9E0,1E0,8E0,1.13E2,1E1,7E0,2.1E1,1.3E1,1.5E1,4.3E1,4.8E1,1.72E2,1E0,2E1,4E0,1E0,1E0,2E0,6E0,1E0,1.01E2,2.6E1,1.4E1,2E0,2.7E1,5E0,6.86E2,1.42E2,3.4E1,1.9E1,6.4E1,1E1,1E0,2E0,1.7E2,3.92E2],"tree_param":{"num_deleted":"0","num_feature":"19","num_nodes":"113","size_leaf_vector":"1"}},{"base_weights":[1.8778174E4,-1.5268581E5,5.373799E5,-1.1460596E6,-1.1608121E5,1.576622E6,2.2249175E5,1.0188629E6,-3.3276848E6,1.3954834E6,-1.8069023E5,8.0104025E5,8.354838E6,3.763783E5,-1.6343581E6,-2.901238E5,7.114176E6,-2.6634108E6,-8.0715975E6,4.0469272E5,3.0915492E6,-1.6903298E5,-3.5236692E6,-2.1450936E5,2.415005E6,3.894378E6,1.684305E7,6.543146E5,-6.0944325E5,-1.9824895E6,4.344333E6,-1.2755689E6,6.227104E6,1.1206954E7,1.835702E6,1.3408095E6,-2.9202082E6,-3.1969958E6,-1.07264E6,7.750507E5,-3.3494738E6,1.6970908E6,6.9298475E6,-1.8157794E5,5.937886E6,2.660232E6,-5.193451E6,3.4284765E6,-1.1779115E6,6.8420195E6,2.6856938E5,4.7983885E6,-2.5264752E6,2.524468E7,2.9843E4,1.8993282E6,3.2049706E5,-9.88559E4,-2.6206808E6,-1.1664505E6,-4.357703E6,1.8032372E6,-9.8256E4,2.083069E6,-6.670999E5,3.7449668E6,-4.7573703E5,3.7096052E6,8.1224644E5,1.1701904E6,-1.273344E6,1.5239646E6,-1.4814612E6,-1.0467083E6,-2.2001745E5,1.0631352E6,-1.5458232E6,-3.337216E5,3.6831944E5,-2.0376079E6,5.373255E5,-3.0373725E5,8.1028375E5,1.4373119E6,4.889332E6,-4.8368457E4,-5.1905484E5,2.39784E4,1.173126E6,-2.0257931E6,5.27446E4,-1.16976336E5,1.5795986E6,-4.3149553E5,4.3543925E6,1.7254472E6,5.7701055E6,-1.2540051E6,6.4226794E5,2.0953726E6,2.0324067E5,-1.1468766E6,9.9627E3,2.8051258E6,9.256262E6,1.03667525E6,-6.791796E5,4.7829794E5,4.3753895E6,-3.1567603E5,1.8047034E5,-6.835306E5,6.99693E4,-1.0814512E6,-1.0558951E5,-4.7817434E5,4.878104E5,-2.5191488E6,-5.274622E5],"categories":[],"categories_nodes":[],"categories_segments":[],"categories_sizes":[],"default_left":[0,0,0,0,0,0,0,0,0,0,0,0,0,0,0,0,0,0,0,0,0,0,0,0,0,0,0,0,0,0,0,0,0,0,0,0,0,0,0,0,0,0,0,0,0,0,0,0,0,0,0,0,0,0,0,0,0,0,0,0,0,0,0,0,0,0,0,0,0,0,0,0,0,0,0,0,0,0,0,0,0,0,0,0,0,0,0,0,0,0,0,0,0,0,0,0,0,0,0,0,0,0,0,0,0,0,0,0,0,0,0,0,0,0,0,0,0,0,0],"id":11,"left_children":[1,3,5,7,9,11,13,15,17,19,21,23,25,27,29,31,33,35,37,39,41,43,45,47,49,51,53,55,57,59,61,63,65,67,69,71,73,-1,75,77,79,81,83,85,-1,87,89,91,93,95,97,99,101,103,105,107,109,111,113,115,117,-1,-1,-1,-1,-1,-1,-1,-1,-1,-1,-1,-1,-1,-1,-1,-1,-1,-1,-1,-1,-1,-1,-1,-1,-1,-1,-1,-1,-1,-1,-1,-1,-1,-1,-1,-1,-1,-1,-1,-1,-1,-1,-1,-1,-1,-1,-1,-1,-1,-1,-1,-1,-1,-1,-1,-1,-1,-1],"loss_changes":[4.0654228E14,1.2480703E14,3.7139955E14,5.796025E14,3.239974E14,1.3811716E15,2.5006984E14,4.967424E14,1.7072884E14,2.2728955E14,1.2332871E14,3.9061463E14,9.5666276E14,2.215132E14,1.4806438E14,3.4190634E14,2.1706721E14,6.047049E13,1.15218034E14,1.2355956E14,2.558568E14,7.974318E14,1.2739921E14,5.1995847E14,8.7237416E14,1.2240892E14,1.2705716E15,2.6122389E14,1.8253135E14,1.1896605E14,3.3110431E13,3.7389683E14,3.6194448E14,2.5595455E13,9.188715E13,1.1899624E14,6.212415E13,0E0,7.476668E13,6.971892E13,1.5373822E14,1.0609435E14,1.823872E14,9.958804E13,0E0,9.365044E12,7.653273E13,2.1948182E14,4.989911E14,2.9478186E14,5.3368814E14,1.4842283E14,1.0082438E13,2.4645596E14,3.9254726E13,4.9132976E14,1.927813E14,1.0403619E14,7.911102E13,6.108239E13,1.5324497E14,0E0,0E0,0E0,0E0,0E0,0E0,0E0,0E0,0E0,0E0,0E0,0E0,0E0,0E0,0E0,0E0,0E0,0E0,0E0,0E0,0E0,0E0,0E0,0E0,0E0,0E0,0E0,0E0,0E0,0E0,0E0,0E0,0E0,0E0,0E0,0E0,0E0,0E0,0E0,0E0,0E0,0E0,0E0,0E0,0E0,0E0,0E0,0E0,0E0,0E0,0E0,0E0,0E0,0E0,0E0,0E0,0E0,0E0],"parents":[2147483647,0,0,1,1,2,2,3,3,4,4,5,5,6,6,7,7,8,8,9,9,10,10,11,11,12,12,13,13,14,14,15,15,16,16,17,17,18,18,19,19,20,20,21,21,22,22,23,23,24,24,25,25,26,26,27,27,28,28,29,29,30,30,31,31,32,32,33,33,34,34,35,35,36,36,38,38,39,39,40,40,41,41,42,42,43,43,45,45,46,46,47,47,48,48,49,49,50,50,51,51,52,52,53,53,54,54,55,55,56,56,57,57,58,58,59,59,60,60],"right_children":[2,4,6,8,10,12,14,16,18,20,22,24,26,28,30,32,34,36,38,40,42,44,46,48,50,52,54,56,58,60,62,64,66,68,70,72,74,-1,76,78,80,82,84,86,-1,88,90,92,94,96,98,100,102,104,106,108,110,112,114,116,118,-1,-1,-1,-1,-1,-1,-1,-1,-1,-1,-1,-1,-1,-1,-1,-1,-1,-1,-1,-1,-1,-1,-1,-1,-1,-1,-1,-1,-1,-1,-1,-1,-1,-1,-1,-1,-1,-1,-1,-1,-1,-1,-1,-1,-1,-1,-1,-1,-1,-1,-1,-1,-1,-1,-1,-1,-1,-1],"split_conditions":[3E0,1.898584E1,1.9059906E1,7.282335E1,1.9030779E1,1.905523E1,4E0,7.282284E1,3E0,1.9019547E1,1.7E3,1E0,4E0,1.921104E1,1.89E3,1.18E3,1E0,1E0,1.251E3,3E0,1E0,1.688E3,1E0,7.281737E1,1.315E3,3E0,1E0,7.283293E1,1E0,1.638E3,7.28559E1,1E0,1.251E3,1.155E3,1.896139E1,1.251E3,1E0,-3.1969958E6,1.36E3,7.82E2,1.325E3,7.75E2,1E0,7.316113E1,5.937886E6,1.773E3,1.9210045E1,3E0,5E0,1.296E3,1.48E3,1E0,1.61E3,1.19E3,1.28E3,7.28324E1,7.284004E1,1.9216866E1,7.285811E1,1.59E3,1.9119478E1,1.8032372E6,-9.8256E4,2.083069E6,-6.670999E5,3.7449668E6,-4.7573703E5,3.7096052E6,8.1224644E5,1.1701904E6,-1.273344E6,1.5239646E6,-1.4814612E6,-1.0467083E6,-2.2001745E5,1.0631352E6,-1.5458232E6,-3.337216E5,3.6831944E5,-2.0376079E6,5.373255E5,-3.0373725E5,8.1028375E5,1.4373119E6,4.889332E6,-4.8368457E4,-5.1905484E5,2.39784E4,1.173126E6,-2.0257931E6,5.27446E4,-1.16976336E5,1.5795986E6,-4.3149553E5,4.3543925E6,1.7254472E6,5.7701055E6,-1.2540051E6,6.4226794E5,2.0953726E6,2.0324067E5,-1.1468766E6,9.9627E3,2.8051258E6,9.256262E6,1.03667525E6,-6.791796E5,4.7829794E5,4.3753895E6,-3.1567603E5,1.8047034E5,-6.835306E5,6.99693E4,-1.0814512E6,-1.0558951E5,-4.7817434E5,4.878104E5,-2.5191488E6,-5.274622E5],"split_indices":[4,1,1,2,1,1,5,2,3,1,0,16,4,1,0,0,13,8,0,3,15,0,8,2,0,5,11,2,14,0,2,8,0,0,1,0,13,0,0,0,0,0,11,2,0,0,1,3,5,0,0,15,0,0,0,2,2,1,2,0,1,0,0,0,0,0,0,0,0,0,0,0,0,0,0,0,0,0,0,0,0,0,0,0,0,0,0,0,0,0,0,0,0,0,0,0,0,0,0,0,0,0,0,0,0,0,0,0,0,0,0,0,0,0,0,0,0,0,0],"split_type":[0,0,0,0,0,0,0,0,0,0,0,0,0,0,0,0,0,0,0,0,0,0,0,0,0,0,0,0,0,0,0,0,0,0,0,0,0,0,0,0,0,0,0,0,0,0,0,0,0,0,0,0,0,0,0,0,0,0,0,0,0,0,0,0,0,0,0,0,0,0,0,0,0,0,0,0,0,0,0,0,0,0,0,0,0,0,0,0,0,0,0,0,0,0,0,0,0,0,0,0,0,0,0,0,0,0,0,0,0,0,0,0,0,0,0,0,0,0,0],"sum_hessian":[4.57E3,3.435E3,1.135E3,1.21E2,3.314E3,2.63E2,8.72E2,6.1E1,6E1,1.35E2,3.179E3,2.37E2,2.6E1,8.06E2,6.6E1,5.1E1,1E1,5.4E1,6E0,8.6E1,4.9E1,3.169E3,1E1,1.46E2,9.1E1,1.8E1,8E0,6.29E2,1.77E2,6.3E1,3E0,4.5E1,6E0,5E0,5E0,3E0,5.1E1,4E0,2E0,7.9E1,7E0,3.7E1,1.2E1,3.168E3,1E0,2E0,8E0,3E1,1.16E2,2.9E1,6.2E1,1.6E1,2E0,5E0,3E0,1.32E2,4.97E2,1.42E2,3.5E1,4.8E1,1.5E1,2E0,1E0,4E0,4.1E1,3E0,3E0,4E0,1E0,4E0,1E0,2E0,1E0,4E1,1.1E1,1E0,1E0,1.5E1,6.4E1,4E0,3E0,1E1,2.7E1,1.1E1,1E0,3.128E3,4E1,1E0,1E0,6E0,2E0,1E1,2E1,1.15E2,1E0,2.8E1,1E0,1.8E1,4.4E1,1E1,6E0,1E0,1E0,2E0,3E0,1E0,2E0,1.3E2,2E0,8.4E1,4.13E2,1.8E1,1.24E2,2.4E1,1.1E1,4.2E1,6E0,5E0,1E1],"tree_param":{"num_deleted":"0","num_feature":"19","num_nodes":"119","size_leaf_vector":"1"}},{"base_weights":[2.2244852E4,-3.0732098E4,1.1802098E6,-2.3753366E5,1.3648369E5,4.7407794E5,5.014474E6,-1.8767695E6,-1.7926667E5,2.7374134E5,-3.5298078E5,3.6127535E6,-4.879152E5,7.17905E6,-5.2011015E6,4.056731E6,-2.4207088E6,7.3961E5,-2.7469938E5,6.873384E5,-8.612568E4,-5.0816572E5,5.008913E6,2.3248348E6,1.0523487E7,1.915051E6,-1.2839755E6,8.732449E6,-1.0917168E6,-2.712715E6,-1.019865E6,-9.68835E4,8.24264E6,-7.9044535E6,-2.1061765E6,5.0557094E5,7.3644685E6,-1.6007616E6,-2.4039077E5,-7.177865E5,9.321769E5,4.021765E5,-4.3241078E5,3.742238E6,-6.428929E5,-3.1211712E5,1.1134679E7,-1.6809628E6,4.7683045E6,6.590374E6,-6.90703E5,-2.77689E5,3.7577615E6,-3.5013542E6,-5.668562E5,1.1326626E7,-7.31255E4,-2.476728E6,6.6724925E5,-6.06846E5,-1.1273333E4,3.4803422E5,-5.8018144E5,2.2350002E5,3.4856882E6,5.8998004E4,-3.6160022E6,1.2744718E6,-7.5454494E5,3.1024075E5,-2.800307E5,9.2641244E5,4.311991E6,1.4054092E6,-8.239917E5,4.6560116E5,-8.7294414E4,6.6801484E4,-1.1674255E6,1.31046875E5,4.6999503E5,-2.4209938E4,7.561314E5,-5.17837E5,-4.4007406E4,4.573663E6,5.876945E5,-1.519574E6,-1.081347E5,-1.220556E6,4.460866E6,3.9370008E6,1.2326076E6,6.9504056E5,-1.4906659E6,2.0650604E6,-2.243082E5,-1.5037472E6,1.8411991E6,4.3570366E5,-1.7492638E6,2.8398775E5,2.4120085E6,-1.9062876E6,-3.56676E4,3.8693106E5,-7.9968044E5,1.329756E6,4.4052275E6,-1.0408951E6,1.3439849E6,2.807388E5,-1.1778505E6,-7.16676E4,6.65946E4],"categories":[],"categories_nodes":[],"categories_segments":[],"categories_sizes":[],"default_left":[0,0,0,0,0,0,0,0,0,0,0,0,0,0,0,0,0,0,0,0,0,0,0,0,0,0,0,0,0,0,0,0,0,0,0,0,0,0,0,0,0,0,0,0,0,0,0,0,0,0,0,0,0,0,0,0,0,0,0,0,0,0,0,0,0,0,0,0,0,0,0,0,0,0,0,0,0,0,0,0,0,0,0,0,0,0,0,0,0,0,0,0,0,0,0,0,0,0,0,0,0,0,0,0,0,0,0,0,0,0,0,0,0,0,0],"id":12,"left_children":[1,3,5,7,9,11,13,15,17,19,21,23,25,27,29,31,33,35,37,39,41,43,45,47,49,51,53,55,57,-1,59,61,63,65,67,69,71,73,75,77,79,81,83,85,87,89,91,93,95,-1,97,99,101,103,105,107,109,111,-1,-1,113,-1,-1,-1,-1,-1,-1,-1,-1,-1,-1,-1,-1,-1,-1,-1,-1,-1,-1,-1,-1,-1,-1,-1,-1,-1,-1,-1,-1,-1,-1,-1,-1,-1,-1,-1,-1,-1,-1,-1,-1,-1,-1,-1,-1,-1,-1,-1,-1,-1,-1,-1,-1,-1,-1],"loss_changes":[2.8044632E14,1.512183E14,5.3912194E14,1.8639215E14,1.625445E14,5.1505805E14,7.22823E14,2.2606023E14,1.6585125E14,2.812178E14,4.4355047E14,3.3155315E14,2.5304954E14,3.435763E14,8.714583E13,1.0511848E14,9.029038E13,2.722614E14,7.750324E13,3.0307027E14,1.7112567E14,2.9789054E14,4.924061E14,3.505969E14,7.8521303E14,1.3438278E14,1.5543762E14,5.0337903E14,2.847131E13,0E0,4.0234842E12,1.1480281E13,6.728719E13,1.0320221E14,1.6661218E14,1.32550526E14,1.3545126E14,3.2256882E14,1.5188444E14,3.9185795E14,2.3471795E14,4.2980382E14,2.1857297E14,2.9834772E14,6.239565E14,5.737532E14,4.3886244E13,1.9553275E14,2.6183412E14,0E0,1.4880055E14,1.6218382E14,2.0907372E14,2.3084342E14,2.995785E14,3.284069E14,1.0833164E14,2.3459088E13,0E0,0E0,2.1230952E11,0E0,0E0,0E0,0E0,0E0,0E0,0E0,0E0,0E0,0E0,0E0,0E0,0E0,0E0,0E0,0E0,0E0,0E0,0E0,0E0,0E0,0E0,0E0,0E0,0E0,0E0,0E0,0E0,0E0,0E0,0E0,0E0,0E0,0E0,0E0,0E0,0E0,0E0,0E0,0E0,0E0,0E0,0E0,0E0,0E0,0E0,0E0,0E0,0E0,0E0,0E0,0E0,0E0,0E0],"parents":[2147483647,0,0,1,1,2,2,3,3,4,4,5,5,6,6,7,7,8,8,9,9,10,10,11,11,12,12,13,13,14,14,15,15,16,16,17,17,18,18,19,19,20,20,21,21,22,22,23,23,24,24,25,25,26,26,27,27,28,28,30,30,31,31,32,32,33,33,34,34,35,35,36,36,37,37,38,38,39,39,40,40,41,41,42,42,43,43,44,44,45,45,46,46,47,47,48,48,50,50,51,51,52,52,53,53,54,54,55,55,56,56,57,57,60,60],"right_children":[2,4,6,8,10,12,14,16,18,20,22,24,26,28,30,32,34,36,38,40,42,44,46,48,50,52,54,56,58,-1,60,62,64,66,68,70,72,74,76,78,80,82,84,86,88,90,92,94,96,-1,98,100,102,104,106,108,110,112,-1,-1,114,-1,-1,-1,-1,-1,-1,-1,-1,-1,-1,-1,-1,-1,-1,-1,-1,-1,-1,-1,-1,-1,-1,-1,-1,-1,-1,-1,-1,-1,-1,-1,-1,-1,-1,-1,-1,-1,-1,-1,-1,-1,-1,-1,-1,-1,-1,-1,-1,-1,-1,-1,-1,-1,-1],"split_conditions":[1.688E3,9.4E2,1E0,1.898584E1,1E0,7.283293E1,7.286478E1,7.280413E1,1.9055758E1,7.28559E1,4E0,7.2831E1,1.905749E1,2E0,1.832E3,1E0,7.280569E1,1.905523E1,1.9063782E1,7.281817E1,1.9121311E1,1.8955996E1,4E0,1E0,1.773E3,1.90267E1,1.75E3,1.9183819E1,1.89E3,-2.712715E6,1.9053144E1,8.8E2,7.6E2,8.55E2,7.2809746E1,1E0,8.84E2,7.284112E1,1.9074713E1,7.281592E1,3E0,7.2907974E1,1.9159008E1,9.74E2,1.9016666E1,1.53E3,1E0,1.773E3,1.9148062E1,6.590374E6,1.9100386E1,1.9004015E1,1.89E3,7.286478E1,1.832E3,1.9041876E1,7.2831E1,1.8955996E1,6.6724925E5,-6.06846E5,1.935E3,3.4803422E5,-5.8018144E5,2.2350002E5,3.4856882E6,5.8998004E4,-3.6160022E6,1.2744718E6,-7.5454494E5,3.1024075E5,-2.800307E5,9.2641244E5,4.311991E6,1.4054092E6,-8.239917E5,4.6560116E5,-8.7294414E4,6.6801484E4,-1.1674255E6,1.31046875E5,4.6999503E5,-2.4209938E4,7.561314E5,-5.17837E5,-4.4007406E4,4.573663E6,5.876945E5,-1.519574E6,-1.081347E5,-1.220556E6,4.460866E6,3.9370008E6,1.2326076E6,6.9504056E5,-1.4906659E6,2.0650604E6,-2.243082E5,-1.5037472E6,1.8411991E6,4.3570366E5,-1.7492638E6,2.8398775E5,2.4120085E6,-1.9062876E6,-3.56676E4,3.8693106E5,-7.9968044E5,1.329756E6,4.4052275E6,-1.0408951E6,1.3439849E6,2.807388E5,-1.1778505E6,-7.16676E4,6.65946E4],"split_indices":[0,0,13,1,15,2,2,2,1,2,4,2,1,5,0,14,2,1,1,2,1,1,3,16,0,1,0,1,0,0,1,0,0,0,2,5,0,2,1,2,4,2,1,0,1,0,5,0,1,0,1,1,0,2,0,1,2,1,0,0,0,0,0,0,0,0,0,0,0,0,0,0,0,0,0,0,0,0,0,0,0,0,0,0,0,0,0,0,0,0,0,0,0,0,0,0,0,0,0,0,0,0,0,0,0,0,0,0,0,0,0,0,0,0,0],"split_type":[0,0,0,0,0,0,0,0,0,0,0,0,0,0,0,0,0,0,0,0,0,0,0,0,0,0,0,0,0,0,0,0,0,0,0,0,0,0,0,0,0,0,0,0,0,0,0,0,0,0,0,0,0,0,0,0,0,0,0,0,0,0,0,0,0,0,0,0,0,0,0,0,0,0,0,0,0,0,0,0,0,0,0,0,0,0,0,0,0,0,0,0,0,0,0,0,0,0,0,0,0,0,0,0,0,0,0,0,0,0,0,0,0,0,0],"sum_hessian":[4.57E3,4.371E3,1.99E2,1.954E3,2.417E3,1.69E2,3E1,6.6E1,1.888E3,1.888E3,5.29E2,3.9E1,1.3E2,2.5E1,5E0,5E0,6.1E1,1.77E2,1.711E3,8.78E2,1.01E3,5.15E2,1.4E1,3.4E1,5E0,3.2E1,9.8E1,2.1E1,4E0,2E0,3E0,3E0,2E0,2E0,5.9E1,1.72E2,5E0,4.2E1,1.669E3,1.3E2,7.48E2,4.19E2,5.91E2,1.5E1,5E2,8E0,6E0,1.3E1,2.1E1,2E0,3E0,1.5E1,1.7E1,2.3E1,7.5E1,1.6E1,5E0,3E0,1E0,1E0,2E0,2E0,1E0,1E0,1E0,1E0,1E0,3E0,5.6E1,1.26E2,4.6E1,4E0,1E0,6E0,3.6E1,4.5E1,1.624E3,1.01E2,2.9E1,4.21E2,3.27E2,3.42E2,7.7E1,1.06E2,4.85E2,1E0,1.4E1,2.9E1,4.71E2,7E0,1E0,4E0,2E0,6E0,7E0,1.5E1,6E0,2E0,1E0,1.2E1,3E0,1.1E1,6E0,1.2E1,1.1E1,4E1,3.5E1,6E0,1E1,3E0,2E0,1E0,2E0,1E0,1E0],"tree_param":{"num_deleted":"0","num_feature":"19","num_nodes":"115","size_leaf_vector":"1"}},{"base_weights":[2.1645744E4,-8.90705E3,1.3086942E6,2.1847514E4,-1.0267917E6,3.747491E6,5.4919894E5,1.119761E5,-2.990749E5,-4.39064E6,-6.1898944E5,2.0975825E6,4.5442875E6,1.3552808E6,-1.5775014E6,4.9054525E6,9.6324375E4,-3.423321E5,6.570983E6,-2.5005088E6,-2.547252E6,-4.576421E5,-1.7848806E6,-4.6349015E6,2.959481E6,6.17429E5,1.5168654E7,3.80738E6,-2.5756025E6,7.7585935E6,-1.5867369E6,-1.0113014E5,2.807184E5,-4.4867175E5,1.2354282E6,3.7174538E6,2.928575E6,-1.2824864E6,-3.3017798E6,-1.8813691E6,-2.8797222E5,-1.602118E5,-1.9488509E6,-2.9358451E4,-2.0563474E6,-1.285776E6,3.536047E6,-1.6399784E6,2.1477248E6,6.166164E6,6.597303E5,-8.302801E3,1.5284872E6,-4.7097725E6,2.0606802E6,2.6009438E6,7.0326305E4,-6.4024725E5,-1.6171681E4,1.881764E5,6.8352134E3,-1.08725555E5,-5.0948466E5,-1.0822938E6,4.9373528E5,2.8992175E5,1.6165879E6,-7.0612456E5,6.1107375E5,-2.056239E5,-1.1063912E6,-6.3785344E5,8.500808E4,-3.696714E5,-2.433917E4,-6.396155E5,-2.0656966E5,1.3266935E6,-3.3437656E5,1.2198974E5,-1.7352088E6,1.1988708E6,-1.0909332E6,-1.8782509E6,2.1992852E5,1.196862E6,-1.1500485E5],"categories":[],"categories_nodes":[],"categories_segments":[],"categories_sizes":[],"default_left":[0,0,0,0,0,0,0,0,0,0,0,0,0,0,0,0,0,0,0,0,0,0,0,0,0,0,0,0,0,0,0,0,0,0,0,0,0,0,0,0,0,0,0,0,0,0,0,0,0,0,0,0,0,0,0,0,0,0,0,0,0,0,0,0,0,0,0,0,0,0,0,0,0,0,0,0,0,0,0,0,0,0,0,0,0,0,0],"id":13,"left_children":[1,3,5,7,9,11,13,15,17,19,21,23,-1,25,27,29,31,33,35,37,-1,39,41,43,45,47,49,51,53,55,-1,57,59,61,63,-1,65,67,69,71,73,-1,75,-1,-1,-1,77,79,81,-1,-1,-1,-1,83,85,-1,-1,-1,-1,-1,-1,-1,-1,-1,-1,-1,-1,-1,-1,-1,-1,-1,-1,-1,-1,-1,-1,-1,-1,-1,-1,-1,-1,-1,-1,-1,-1],"loss_changes":[1.7975676E14,1.3982876E14,1.9428087E14,1.2544919E14,1.7698607E14,4.3845606E14,1.4271009E14,2.5356604E14,2.8486686E14,8.726743E13,2.1380544E13,1.4717942E14,0E0,6.021677E14,1.3342341E14,3.609883E14,1.2294664E14,1.5927279E14,9.0914995E13,6.5011335E12,0E0,2.4822394E13,1.8306501E12,2.9540307E13,1.0288171E14,2.0388326E14,1.6433182E14,1.9892732E13,2.0759763E14,5.967317E13,0E0,1.5647527E14,1.5604952E14,9.4988E13,1.2518046E14,0E0,1.8927585E13,2.613006E13,3.5347161E12,6.431873E12,1.8454812E13,0E0,1.3025621E12,0E0,0E0,0E0,8.736292E13,2.059022E14,3.887555E14,0E0,0E0,0E0,0E0,1.22781035E14,3.4528725E13,0E0,0E0,0E0,0E0,0E0,0E0,0E0,0E0,0E0,0E0,0E0,0E0,0E0,0E0,0E0,0E0,0E0,0E0,0E0,0E0,0E0,0E0,0E0,0E0,0E0,0E0,0E0,0E0,0E0,0E0,0E0,0E0],"parents":[2147483647,0,0,1,1,2,2,3,3,4,4,5,5,6,6,7,7,8,8,9,9,10,10,11,11,13,13,14,14,15,15,16,16,17,17,18,18,19,19,21,21,22,22,23,23,24,24,25,25,26,26,27,27,28,28,29,29,31,31,32,32,33,33,34,34,36,36,37,37,38,38,39,39,40,40,42,42,46,46,47,47,48,48,53,53,54,54],"right_children":[2,4,6,8,10,12,14,16,18,20,22,24,-1,26,28,30,32,34,36,38,-1,40,42,44,46,48,50,52,54,56,-1,58,60,62,64,-1,66,68,70,72,74,-1,76,-1,-1,-1,78,80,82,-1,-1,-1,-1,84,86,-1,-1,-1,-1,-1,-1,-1,-1,-1,-1,-1,-1,-1,-1,-1,-1,-1,-1,-1,-1,-1,-1,-1,-1,-1,-1,-1,-1,-1,-1,-1,-1],"split_conditions":[4E0,7.304432E1,7.283293E1,1E0,1.9072083E1,7.2831E1,1.8E3,1.8935106E1,5E0,3E0,1.251E3,1E0,4.5442875E6,1.773E3,1.9032822E1,2E0,9.74E2,7.293966E1,1.9046959E1,1E0,-2.547252E6,7.05E2,7.3081184E1,6.04E2,1.8935106E1,7.2855095E1,1.9100842E1,1.832E3,7.2909035E1,7.2824326E1,-1.5867369E6,1.897337E1,1.9121311E1,7.291768E1,1.9154783E1,3.7174538E6,1.36E3,3E0,7E2,2E0,1.9207602E1,-1.602118E5,1E0,-2.9358451E4,-2.0563474E6,-1.285776E6,1.9210045E1,1.61E3,7.2907974E1,6.166164E6,6.597303E5,-8.302801E3,1.5284872E6,1.9196453E1,1.832E3,2.6009438E6,7.0326305E4,-6.4024725E5,-1.6171681E4,1.881764E5,6.8352134E3,-1.08725555E5,-5.0948466E5,-1.0822938E6,4.9373528E5,2.8992175E5,1.6165879E6,-7.0612456E5,6.1107375E5,-2.056239E5,-1.1063912E6,-6.3785344E5,8.500808E4,-3.696714E5,-2.433917E4,-6.396155E5,-2.0656966E5,1.3266935E6,-3.3437656E5,1.2198974E5,-1.7352088E6,1.1988708E6,-1.0909332E6,-1.8782509E6,2.1992852E5,1.196862E6,-1.1500485E5],"split_indices":[3,2,2,15,1,2,0,1,5,3,0,8,0,0,1,5,0,2,1,14,0,0,2,0,1,2,1,0,2,2,0,1,1,2,1,0,0,5,0,5,1,0,15,0,0,0,1,0,2,0,0,0,0,1,0,0,0,0,0,0,0,0,0,0,0,0,0,0,0,0,0,0,0,0,0,0,0,0,0,0,0,0,0,0,0,0,0],"split_type":[0,0,0,0,0,0,0,0,0,0,0,0,0,0,0,0,0,0,0,0,0,0,0,0,0,0,0,0,0,0,0,0,0,0,0,0,0,0,0,0,0,0,0,0,0,0,0,0,0,0,0,0,0,0,0,0,0,0,0,0,0,0,0,0,0,0,0,0,0,0,0,0,0,0,0,0,0,0,0,0,0,0,0,0,0,0,0],"sum_hessian":[4.57E3,4.465E3,1.05E2,4.335E3,1.3E2,2.4E1,8.1E1,3.385E3,9.5E2,1.3E1,1.17E2,2.2E1,2E0,5.9E1,2.2E1,1E1,3.375E3,9.45E2,5E0,1E1,3E0,1.04E2,1.3E1,2E0,2E1,5.7E1,2E0,3E0,1.9E1,8E0,2E0,1.63E3,1.745E3,8.86E2,5.9E1,1E0,4E0,5E0,5E0,1E1,9.4E1,2E0,1.1E1,1E0,1E0,1E0,1.9E1,2.3E1,3.4E1,1E0,1E0,1E0,2E0,1.3E1,6E0,7E0,1E0,3.6E1,1.594E3,7.44E2,1.001E3,8.3E2,5.6E1,4E0,5.5E1,3E0,1E0,4E0,1E0,1E0,4E0,9E0,1E0,1.6E1,7.8E1,9E0,2E0,1.6E1,3E0,1.6E1,7E0,2.6E1,8E0,1E1,3E0,3E0,3E0],"tree_param":{"num_deleted":"0","num_feature":"19","num_nodes":"87","size_leaf_vector":"1"}},{"base_weights":[1.6806498E4,-1.8675135E4,7.9235094E5,9.2689905E2,-1.2975734E6,2.5473781E5,3.7149922E6,-7.164873E4,3.650201E5,-8.2119266E4,-4.534222E6,2.3075768E6,-3.7402778E5,5.2607445E6,-3.6024332E6,4.8495206E5,-1.2362827E5,2.608425E6,2.3193112E5,3.2542002E6,-5.3520556E5,-8.650299E6,-3.13432E6,1.2053866E6,7.331417E6,9.4531694E5,-1.0753746E6,2.5036732E6,1.019036E7,-1.6179138E6,-1.4139333E4,1.50098955E4,1.9911364E6,-3.088536E5,3.675325E4,-1.663748E5,6.781023E6,-6.6013555E6,3.0287162E5,2.2793322E6,8.659308E5,-1.0602706E6,1.624522E6,-3.678586E6,3.2769962E5,3.1472908E6,-4.342821E6,-2.0231842E6,3.0583882E6,1.3324906E7,-4.94926E5,1.63288E5,5.2790085E6,-6.3819215E6,-4.4929394E5,4.385394E6,9.311858E5,1.3587149E7,-1.1322666E6,-6.19428E4,5.55801E4,9.5510644E5,-5.546528E4,8.879124E5,-4.9331412E5,-1.10291164E5,6.195408E5,9.940582E4,-5.441915E4,-1.0177362E6,3.0928116E5,3.613708E6,1.2066978E6,-2.8811968E6,1.810456E5,1.3146562E6,6.847301E4,-2.961105E5,4.727793E5,-6.8379325E5,4.512395E4,7.7674925E5,-9.138921E5,1.1186989E6,2.97582E5,-1.4665645E6,3.3088562E5,3.8480375E5,-1.2749052E6,1.9130029E6,8.117955E4,4.799052E6,7.963656E5,-1.2406329E6,1.5639936E6,3.1804344E5,-1.2648602E6,-2.9247402E6,2.8225665E6,-2.1605032E6,2.6419201E4,-1.9352761E6,-6.1942766E4,9.4276244E5,-5.84822E5,5.075096E6,1.0525116E6,-4.043364E5,-1.051836E5],"categories":[],"categories_nodes":[],"categories_segments":[],"categories_sizes":[],"default_left":[0,0,0,0,0,0,0,0,0,0,0,0,0,0,0,0,0,0,0,0,0,0,0,0,0,0,0,0,0,0,0,0,0,0,0,0,0,0,0,0,0,0,0,0,0,0,0,0,0,0,0,0,0,0,0,0,0,0,0,0,0,0,0,0,0,0,0,0,0,0,0,0,0,0,0,0,0,0,0,0,0,0,0,0,0,0,0,0,0,0,0,0,0,0,0,0,0,0,0,0,0,0,0,0,0,0,0,0,0],"id":14,"left_children":[1,3,5,7,9,11,13,15,17,19,21,23,25,27,29,31,33,35,37,39,41,43,45,47,49,51,53,55,57,-1,59,61,63,65,67,69,71,73,75,-1,77,79,81,-1,-1,83,85,87,89,91,93,95,97,99,101,-1,103,105,107,-1,-1,-1,-1,-1,-1,-1,-1,-1,-1,-1,-1,-1,-1,-1,-1,-1,-1,-1,-1,-1,-1,-1,-1,-1,-1,-1,-1,-1,-1,-1,-1,-1,-1,-1,-1,-1,-1,-1,-1,-1,-1,-1,-1,-1,-1,-1,-1,-1,-1],"loss_changes":[1.2579767E14,1.0960289E14,3.1330374E14,1.13835575E14,2.5927152E14,2.2029136E14,3.6959022E14,1.0398318E14,2.1317287E14,7.581206E13,7.66051E13,2.1265187E14,1.2223326E14,3.2786056E14,3.8475198E13,2.1727072E14,9.7627635E13,4.642532E14,3.301797E14,5.5662596E13,5.1618326E13,1.5414218E14,1.275381E14,2.0959427E14,3.3494457E14,1.5503532E14,2.8285276E14,3.2928068E14,3.615294E14,0E0,1.5331264E11,1.4943768E14,2.6191865E14,2.1357544E14,1.1329856E14,1.0006297E14,1.839264E14,1.5723036E14,2.0327386E14,0E0,8.1335304E12,5.347423E13,4.843849E13,0E0,0E0,6.2394466E10,4.4026602E13,1.0113752E14,2.0178964E14,7.157744E13,1.046831E14,1.6158075E14,5.2614114E14,4.836848E13,1.123377E14,0E0,1.1441632E14,1.755737E14,3.283904E10,0E0,0E0,0E0,0E0,0E0,0E0,0E0,0E0,0E0,0E0,0E0,0E0,0E0,0E0,0E0,0E0,0E0,0E0,0E0,0E0,0E0,0E0,0E0,0E0,0E0,0E0,0E0,0E0,0E0,0E0,0E0,0E0,0E0,0E0,0E0,0E0,0E0,0E0,0E0,0E0,0E0,0E0,0E0,0E0,0E0,0E0,0E0,0E0,0E0,0E0],"parents":[2147483647,0,0,1,1,2,2,3,3,4,4,5,5,6,6,7,7,8,8,9,9,10,10,11,11,12,12,13,13,14,14,15,15,16,16,17,17,18,18,19,19,20,20,21,21,22,22,23,23,24,24,25,25,26,26,27,27,28,28,30,30,31,31,32,32,33,33,34,34,35,35,36,36,37,37,38,38,40,40,41,41,42,42,45,45,46,46,47,47,48,48,49,49,50,50,51,51,52,52,53,53,54,54,56,56,57,57,58,58],"right_children":[2,4,6,8,10,12,14,16,18,20,22,24,26,28,30,32,34,36,38,40,42,44,46,48,50,52,54,56,58,-1,60,62,64,66,68,70,72,74,76,-1,78,80,82,-1,-1,84,86,88,90,92,94,96,98,100,102,-1,104,106,108,-1,-1,-1,-1,-1,-1,-1,-1,-1,-1,-1,-1,-1,-1,-1,-1,-1,-1,-1,-1,-1,-1,-1,-1,-1,-1,-1,-1,-1,-1,-1,-1,-1,-1,-1,-1,-1,-1,-1,-1,-1,-1,-1,-1,-1,-1,-1,-1,-1,-1],"split_conditions":[1.688E3,1.65E3,1E0,1E0,1E0,7.283293E1,7.286478E1,1E0,1.8968409E1,1E0,1.8963299E1,7.283087E1,1.9100842E1,4E0,1.9079998E1,3E0,1E0,3E0,1.8970535E1,1.9081509E1,1.921815E1,1.67E3,1.9041876E1,1E0,1.773E3,1.907907E1,1.911623E1,1.7E3,1.89E3,-1.6179138E6,1.935E3,1.90267E1,1.45E3,1.53E3,7.2854546E1,7.280413E1,7.281462E1,2E0,1.898584E1,2.2793322E6,1.67E3,7.286041E1,4E0,-3.678586E6,3.2769962E5,1.897337E1,7.288404E1,7.281737E1,7.282735E1,1.9111397E1,1.9100386E1,1.9058655E1,1.715E3,1.89E3,1.7E3,4.385394E6,1.9119328E1,1.9119328E1,1.935E3,-6.19428E4,5.55801E4,9.5510644E5,-5.546528E4,8.879124E5,-4.9331412E5,-1.10291164E5,6.195408E5,9.940582E4,-5.441915E4,-1.0177362E6,3.0928116E5,3.613708E6,1.2066978E6,-2.8811968E6,1.810456E5,1.3146562E6,6.847301E4,-2.961105E5,4.727793E5,-6.8379325E5,4.512395E4,7.7674925E5,-9.138921E5,1.1186989E6,2.97582E5,-1.4665645E6,3.3088562E5,3.8480375E5,-1.2749052E6,1.9130029E6,8.117955E4,4.799052E6,7.963656E5,-1.2406329E6,1.5639936E6,3.1804344E5,-1.2648602E6,-2.9247402E6,2.8225665E6,-2.1605032E6,2.6419201E4,-1.9352761E6,-6.1942766E4,9.4276244E5,-5.84822E5,5.075096E6,1.0525116E6,-4.043364E5,-1.051836E5],"split_indices":[0,0,13,13,13,2,2,8,1,8,1,2,1,4,1,3,16,3,1,1,1,0,1,16,0,1,1,0,0,0,0,1,0,0,2,2,2,5,1,0,0,2,5,0,0,1,2,2,2,1,1,1,0,0,0,0,1,1,0,0,0,0,0,0,0,0,0,0,0,0,0,0,0,0,0,0,0,0,0,0,0,0,0,0,0,0,0,0,0,0,0,0,0,0,0,0,0,0,0,0,0,0,0,0,0,0,0,0,0],"split_type":[0,0,0,0,0,0,0,0,0,0,0,0,0,0,0,0,0,0,0,0,0,0,0,0,0,0,0,0,0,0,0,0,0,0,0,0,0,0,0,0,0,0,0,0,0,0,0,0,0,0,0,0,0,0,0,0,0,0,0,0,0,0,0,0,0,0,0,0,0,0,0,0,0,0,0,0,0,0,0,0,0,0,0,0,0,0,0,0,0,0,0,0,0,0,0,0,0,0,0,0,0,0,0,0,0,0,0,0,0],"sum_hessian":[4.57E3,4.371E3,1.99E2,4.306E3,6.5E1,1.69E2,3E1,3.591E3,7.15E2,4.8E1,1.7E1,3.9E1,1.3E2,2.5E1,5E0,3.06E2,3.285E3,3.9E1,6.76E2,5E0,4.3E1,3E0,1.4E1,3.3E1,6E0,4.5E1,8.5E1,1.7E1,8E0,3E0,2E0,2.34E2,7.2E1,1.524E3,1.761E3,2.4E1,1.5E1,6E0,6.7E2,1E0,4E0,3.5E1,8E0,2E0,1E0,2E0,1.2E1,1.2E1,2.1E1,3E0,3E0,3.9E1,6E0,8E0,7.7E1,1E0,1.6E1,6E0,2E0,1E0,1E0,1.3E1,2.21E2,5.7E1,1.5E1,1.488E3,3.6E1,7.49E2,1.012E3,6E0,1.8E1,4E0,1.1E1,4E0,2E0,1.1E1,6.59E2,1E0,3E0,1.7E1,1.8E1,7E0,1E0,1E0,1E0,1.1E1,1E0,5E0,7E0,9E0,1.2E1,2E0,1E0,2E0,1E0,3.3E1,6E0,1E0,5E0,7E0,1E0,2E0,7.5E1,9E0,7E0,4E0,2E0,1E0,1E0],"tree_param":{"num_deleted":"0","num_feature":"19","num_nodes":"109","size_leaf_vector":"1"}},{"base_weights":[1.4790974E4,7.922502E4,-2.8674675E5,2.1411047E5,-2.0984914E5,-2.2712453E5,-1.0651728E6,1.8639267E5,5.649518E6,-1.5170921E6,8.546296E4,-2.41045E5,1.5278076E6,-1.3213369E6,6.689997E5,1.4381252E5,1.6971502E6,3.5643355E6,4.1401248E6,-3.6935872E5,-1.9826054E6,1.9599845E5,-7.305849E5,-7.1803775E5,-1.9612738E5,-1.4147445E6,4.8834556E5,-2.014207E5,4.769326E5,4.362022E4,6.5299625E5,9.4881106E5,6.0923045E6,-2.605708E5,5.2287205E6,2.603781E5,-2.908335E6,-2.666228E6,-7.697627E5,1.5037732E4,6.6297994E5,-3.174933E6,-3.9451316E5,-5.796087E5,-1.61459E6,-3.0253403E5,1.520691E5,-8.653268E5,-1.9982024E6,4.1508528E5,-2.830754E5,3.1594926E4,-9.8235306E5,1.1938155E6,5.990495E4,4.2974747E5,-1.8905278E6,2.7178785E6,-1.1553715E6,1.732069E6,6.0987044E5,4.1458375E5,-3.457292E5,-1.0645054E6,1.2235091E5,-3.0155297E5,-9.8946956E5,-3.7404816E5,7.10323E5,9.563116E4,-3.5566478E5,-2.7347853E5,2.6992744E5,-5.348973E5,-1.8627122E6,-3.0885701E4,-4.2505147E5,-1.3848158E5,-5.143571E5,-5.7459744E5,7.358295E4,-9.409914E5,-7.5783734E4,1.0578981E6,-2.8423459E4,-3.5288844E5,6.043546E5,-9.046007E4,-7.737868E5],"categories":[],"categories_nodes":[],"categories_segments":[],"categories_sizes":[],"default_left":[0,0,0,0,0,0,0,0,0,0,0,0,0,0,0,0,0,0,0,0,0,0,0,0,0,0,0,0,0,0,0,0,0,0,0,0,0,0,0,0,0,0,0,0,0,0,0,0,0,0,0,0,0,0,0,0,0,0,0,0,0,0,0,0,0,0,0,0,0,0,0,0,0,0,0,0,0,0,0,0,0,0,0,0,0,0,0,0,0],"id":15,"left_children":[1,3,5,7,9,11,13,15,17,19,21,23,-1,25,27,29,31,-1,33,35,37,39,41,43,45,47,-1,49,-1,51,53,55,57,-1,59,61,63,65,67,69,71,73,75,77,79,81,83,85,87,-1,-1,-1,-1,-1,-1,-1,-1,-1,-1,-1,-1,-1,-1,-1,-1,-1,-1,-1,-1,-1,-1,-1,-1,-1,-1,-1,-1,-1,-1,-1,-1,-1,-1,-1,-1,-1,-1,-1,-1],"loss_changes":[8.8834025E13,1.4692741E14,3.71193E13,3.8598616E14,4.6299724E14,5.669426E13,2.6205235E13,1.6424337E14,7.308779E13,1.1734471E14,8.845119E13,1.5885364E13,0E0,1.6076641E13,6.731908E12,1.2690004E14,2.244542E14,0E0,6.9970856E13,1.046849E14,1.2812055E14,7.29181E13,9.4860174E13,7.0071343E12,2.542555E13,1.3978441E13,0E0,7.187351E12,0E0,4.2615417E14,6.1593475E14,2.2295172E14,3.2994442E14,0E0,5.675078E12,8.557431E13,2.9038391E13,1.01663755E14,8.9766125E13,2.2755961E14,9.067103E13,4.8055567E13,3.0853405E13,6.842229E12,4.9443986E12,7.348622E13,1.3441715E14,2.654921E13,2.1898235E13,0E0,0E0,0E0,0E0,0E0,0E0,0E0,0E0,0E0,0E0,0E0,0E0,0E0,0E0,0E0,0E0,0E0,0E0,0E0,0E0,0E0,0E0,0E0,0E0,0E0,0E0,0E0,0E0,0E0,0E0,0E0,0E0,0E0,0E0,0E0,0E0,0E0,0E0,0E0,0E0],"parents":[2147483647,0,0,1,1,2,2,3,3,4,4,5,5,6,6,7,7,8,8,9,9,10,10,11,11,13,13,14,14,15,15,16,16,18,18,19,19,20,20,21,21,22,22,23,23,24,24,25,25,27,27,29,29,30,30,31,31,32,32,34,34,35,35,36,36,37,37,38,38,39,39,40,40,41,41,42,42,43,43,44,44,45,45,46,46,47,47,48,48],"right_children":[2,4,6,8,10,12,14,16,18,20,22,24,-1,26,28,30,32,-1,34,36,38,40,42,44,46,48,-1,50,-1,52,54,56,58,-1,60,62,64,66,68,70,72,74,76,78,80,82,84,86,88,-1,-1,-1,-1,-1,-1,-1,-1,-1,-1,-1,-1,-1,-1,-1,-1,-1,-1,-1,-1,-1,-1,-1,-1,-1,-1,-1,-1,-1,-1,-1,-1,-1,-1,-1,-1,-1,-1,-1,-1],"split_conditions":[1.924806E1,7.287917E1,1.388E3,7.287871E1,7.289427E1,1.376E3,1E0,4E0,1E0,8.9E2,7.304432E1,1E0,1.5278076E6,5E0,1.53E3,7.286417E1,7.286478E1,3.5643355E6,3E0,1.91181E1,1.9111397E1,7.293966E1,1.9072083E1,1.104E3,1.03E3,1.9305952E1,4.8834556E5,1.9278545E1,4.769326E5,7.286401E1,7.286478E1,7.286373E1,1.715E3,-2.605708E5,1.935E3,7.288662E1,1.9158049E1,1.905749E1,1.315E3,1.9140512E1,1.9156092E1,3E0,1.104E3,1E0,7.288469E1,1.9252338E1,1.9254084E1,1.930478E1,3E0,4.1508528E5,-2.830754E5,3.1594926E4,-9.8235306E5,1.1938155E6,5.990495E4,4.2974747E5,-1.8905278E6,2.7178785E6,-1.1553715E6,1.732069E6,6.0987044E5,4.1458375E5,-3.457292E5,-1.0645054E6,1.2235091E5,-3.0155297E5,-9.8946956E5,-3.7404816E5,7.10323E5,9.563116E4,-3.5566478E5,-2.7347853E5,2.6992744E5,-5.348973E5,-1.8627122E6,-3.0885701E4,-4.2505147E5,-1.3848158E5,-5.143571E5,-5.7459744E5,7.358295E4,-9.409914E5,-7.5783734E4,1.0578981E6,-2.8423459E4,-3.5288844E5,6.043546E5,-9.046007E4,-7.737868E5],"split_indices":[1,2,0,2,2,0,13,3,5,0,2,8,0,3,0,2,2,0,5,1,1,2,1,0,0,1,0,1,0,2,2,2,0,0,0,2,1,1,0,1,1,3,0,13,2,1,1,1,3,0,0,0,0,0,0,0,0,0,0,0,0,0,0,0,0,0,0,0,0,0,0,0,0,0,0,0,0,0,0,0,0,0,0,0,0,0,0,0,0],"split_type":[0,0,0,0,0,0,0,0,0,0,0,0,0,0,0,0,0,0,0,0,0,0,0,0,0,0,0,0,0,0,0,0,0,0,0,0,0,0,0,0,0,0,0,0,0,0,0,0,0,0,0,0,0,0,0,0,0,0,0,0,0,0,0,0,0,0,0,0,0,0,0,0,0,0,0,0,0,0,0,0,0,0,0,0,0,0,0,0,0],"sum_hessian":[4.57E3,3.766E3,8.04E2,2.568E3,1.198E3,7.48E2,5.6E1,2.556E3,1.2E1,2.2E2,9.78E2,7.47E2,1E0,4.9E1,7E0,2.487E3,6.9E1,1E0,1.1E1,6.4E1,1.56E2,8.62E2,1.16E2,6.3E1,6.84E2,4.8E1,1E0,4E0,3E0,2.079E3,4.08E2,6E1,9E0,2E0,9E0,5.2E1,1.2E1,9.9E1,5.7E1,6.22E2,2.4E2,1.3E1,1.03E2,5.6E1,7E0,5.24E2,1.6E2,2.6E1,2.2E1,1E0,3E0,2.042E3,3.7E1,4.8E1,3.6E2,5.7E1,3E0,7E0,2E0,7E0,2E0,2.9E1,2.3E1,1E1,2E0,2.8E1,7.1E1,5E1,7E0,4.97E2,1.25E2,3.1E1,2.09E2,1E1,3E0,8.1E1,2.2E1,5.2E1,4E0,6E0,1E0,8E0,5.16E2,1E1,1.5E2,2.4E1,2E0,6E0,1.6E1],"tree_param":{"num_deleted":"0","num_feature":"19","num_nodes":"89","size_leaf_vector":"1"}},{"base_weights":[1.0786166E4,-7.188825E5,3.724496E4,-5.851751E5,-2.8971755E6,-5.1614872E5,7.817814E4,-1.4924981E6,-5.231565E5,-4.0047712E6,6.529395E5,-3.6685484E5,-2.0342061E6,5.456805E4,8.6935194E5,-7.9631625E5,2.5476966E5,-2.144517E5,-1.3301861E6,4.3119212E5,